
               0.0207451, -0.0624794, -0.023495, 0.035714, -0.0153324, -0.000568919, 0.0311167, -0.0491743, -0.0032352, 0.0410244, -0.0261291, 0.0525045, -0.0354728, -0.027426, 0.0126301, -0.0175242, -0.0188894, 0.0921741, 0.00950446, 0.0164634, -0.0219304, 0.0780634, 0.0775747, 0.0147972, 0.0676838
               1.01628, 1.02167, 1.0214, 1.01009, 1.06757, 0.990137, 1.02731, 1.00017, 1.01411, 1.03653, 1.02057, 1.03138, 1.00727, 1.02723, 1.00456, 1.00092, 1.00195, 1.01886, 1.00245, 1.02055, 1.04675, 1.04783, 1.03135, 1.03073, 1.03833
               0.042116, 0.0203483, 0.061902, 0.0400199, 0.0481814, 0.0399567, 0.0281946, 0.00348905, 0.0382816, 0.00889941, 0.06238, 0.00972852, 0.0469618, 0.0647348, 0.0387104, 0.0254531, 0.0431511, 0.00639638, 0.040161, 0.0511962, 0.0609184, -0.0135982, -0.0105961, 0.0100192, 0.00703761
               0.983135, 0.994724, 0.99333, 0.989972, 0.996821, 0.997752, 0.986262, 1.00262, 1.00211, 1.00431, 0.992493, 0.982506, 0.99365, 0.990643, 0.992771, 1.0001, 0.980259, 1.00523, 0.990705, 0.984793, 0.991837, 0.989268, 0.989824, 1.00398, 0.984641
               0.0798066, 0.037416, 0.0566166, 0.0839244, 0.0811424, 0.0841276, 0.0801805, -0.0189692, 0.0756258, 0.0152731, 0.0707016, 0.0689834, 0.0843789, 0.0758969, 0.0764005, 0.0382982, 0.0791914, 0.0834134, 0.0392105, 0.0825765, -0.0180852, 0.0852926, 0.0803176, 0.0660055, 0.0747769
               1.075, 1.10172, 1.11301, 1.09846, 1.06621, 1.07446, 1.06696, 1.10718, 1.07215, 1.09979, 1.06065, 1.10701, 1.07421, 1.07826, 1.07033, 1.10165, 1.07573, 1.07514, 1.10434, 1.08669, 1.0995, 1.07926, 1.07625, 1.10608, 1.08056
               0.00580694, 0.0646301, -0.0394294, -0.0276663, -0.0214405, 0.00548565, -0.0365761, 0.0357939, -0.00725621, 0.0512846, -0.0242576, 0.0777949, 0.00239745, 0.0155822, -0.0138558, 0.0624312, 0.0113988, 0.00698568, 0.039528, 0.0210883, 0.0369294, 0.013675, 0.00595012, 0.0815542, 0.0393843
               0.0083595, 0.01268, 0.00270968, 0.00506231, 0.00942381, 0.00953077, 0.00976395, 0.00905674, 0.00936298, 0.0108285, 0.00777405, 0.0133952, 0.00940838, 0.00547955, 0.0087301, 0.0107268, 0.00864089, 0.00959418, 0.00722137, 0.00828329, 0.00728561, 0.00679854, 0.00789318, 0.0118087, 0.00801177
               0.0781906, -0.0564623, -0.0358116, 0.0747315, -0.00253099, -0.0353015, 0.0697216, -0.0532503, -0.0291479, -0.0353861, -0.0401997, 0.0725761, -0.0313803, -0.0368694, 0.066834, 0.0374225, 0.0783477, 0.0816463, 0.0053907, -0.00280921, -0.0237901, 0.0737348, 0.094654, 0.090593, 0.111912
               1.05084, 1.03045, 1.02461, 1.05253, 1.04888, 0.97739, 1.04145, 1.00531, 1.01861, 1.01535, 1.02217, 1.00918, 1.01315, 1.02687, 1.03993, 1.01033, 1.03658, 1.01269, 0.982698, 1.02496, 1.03786, 1.04073, 1.02178, 1.02002, 1.05584
               -0.32888, -0.0376545, -0.0434761, -0.327249, -0.0255588, -0.20103, -0.375618, -0.0588031, -0.146582, -0.115701, -0.0236269, -0.382911, -0.159596, -0.0135341, -0.311997, -0.222639, -0.318079, -0.204826, -0.204623, -0.159942, -0.0226359, -0.224063, -0.26496, -0.172287, -0.442724
               0.733606, 1.18642, 1.30224, 0.7245, 1.29378, 1.08439, 0.659832, 1.02843, 1.14946, 1.0266, 1.30284, 0.619253, 1.16785, 1.24306, 0.769266, 0.95997, 0.788095, 0.683494, 1.05707, 1.12341, 1.29015, 0.716029, 0.723781, 0.676292, 0.687423
               0.0781628, 0.041978, 0.0891207, 0.0827322, 0.0832486, 0.0809682, -0.0397218, 0.0823194, 0.0572722, 0.057069, 0.0318689, -0.042382, 0.0776158, -0.0346418, 0.0708186, 0.0876799, 0.0820418, 0.0840463, 0.0822262, -0.0114616, 0.0754891, 0.0860366, 0.0823824, 0.0933249, 0.0893066
               1.08308, 1.10274, 1.08479, 1.07378, 1.07768, 1.10598, 1.08119, 1.07345, 1.10937, 1.0972, 1.10534, 1.09889, 1.08272, 1.09474, 1.09347, 1.07979, 1.07289, 1.07945, 1.07625, 1.09275, 1.07289, 1.09621, 1.07306, 1.09616, 1.08185
               0.00240977, -0.00139922, -0.045551, -0.0491514, -0.0413757, 0.00709279, 0.0275083, -0.0390222, 0.00414801, 0.00991103, 0.0231123, 0.00376237, 0.00316825, 0.0274391, -0.00709992, -0.0420459, -0.047342, -0.0384673, -0.0474383, 0.0327498, -0.0282966, 0.0046496, -0.0389087, 0.0012787, -0.0476867
               0.00582433, 0.00344255, 0.00635455, 0.0131779, 0.0116877, 0.00429192, 0.00586256, 0.0118782, 0.00362667, 0.00452752, 0.00689084, 0.0061249, 0.00587818, 0.00631215, 0.00389524, 0.00653974, 0.0130093, 0.0125596, 0.00713175, 0.00739119, 0.0104417, 0.00380069, 0.011964, 0.00445566, 0.00642752
               0.0410662, -0.0480101, -0.027415, 0.0350772, 0.0104095, -0.0280198, 0.0695214, -0.0538085, -0.0391463, -0.0486016, -0.0357075, 0.0842745, -0.0276942, -0.040301, 0.0475941, 0.00963882, 0.0331925, 0.109144, -0.0149445, -0.00914201, -0.00670177, -0.042041, -0.0380527, 0.137659, 0.125201
               1.02846, 1.04545, 1.01956, 1.03705, 1.04092, 1.00859, 1.02903, 1.01301, 1.01466, 1.01261, 1.0192, 1.0191, 1.00827, 1.01218, 1.02815, 1.01525, 1.02005, 1.03439, 1.00664, 1.02732, 1.03615, 1.04462, 1.02824, 1.03809, 1.05272
               -0.64368, -0.196541, -0.267467, -0.648261, -0.194016, -0.516678, -0.718069, -0.191674, -0.402685, -0.30487, -0.220556, -0.691753, -0.440789, -0.197976, -0.603934, -0.466027, -0.641036, -0.412667, -0.501138, -0.415212, -0.202006, -0.359308, -0.40704, -0.318215, -0.747469
               0.903477, 1.35866, 1.54612, 0.881465, 1.52913, 1.33686, 0.782263, 1.06768, 1.37923, 1.13561, 1.52658, 0.717347, 1.40956, 1.41601, 0.934812, 1.17132, 0.978156, 0.569566, 1.32777, 1.40633, 1.53657, 0.754047, 0.76605, 0.547029, 0.855943
               0.0805054, -0.00727323, 0.0810405, 0.0842942, 0.0299739, 0.0845343, 0.0793978, 0.0785212, 0.0836479, 0.0786028, 0.0893276, 0.0786259, 0.0820252, 0.0845674, 0.0928163, -0.00646654, 0.0817057, 0.0444555, 0.084762, 0.0836752, 0.0835455, 0.0799917, 0.0887941, 0.0380073, 0.0350708
               1.09116, 1.13871, 1.10603, 1.07976, 1.1506, 1.0809, 1.08004, 1.10989, 1.07923, 1.08749, 1.08442, 1.0779, 1.09371, 1.09791, 1.0942, 1.12863, 1.09369, 1.14343, 1.08168, 1.0861, 1.08462, 1.08552, 1.11288, 1.13563, 1.15085
               0.00680313, 0.0403981, 0.0231297, -0.03586, 0.0346608, -0.0371202, -0.0374894, 0.0118757, -0.0605621, -0.00105277, -0.0433659, -0.0443276, 0.00618574, 0.0100748, -0.0658175, 0.0451875, 0.00783984, 0.0160354, -0.0515023, -0.0673361, -0.0174483, -0.016667, 0.0167043, 0.036866, 0.0266156
               0.00424604, 0.00666034, 0.00395289, 0.00640473, 0.00701853, 0.00637387, 0.00620568, 0.00574175, 0.00899641, 0.00447704, 0.00595324, 0.0057214, 0.00424538, 0.00408262, 0.006395, 0.00650565, 0.00424419, 0.00441948, 0.00744336, 0.00662809, 0.00527074, 0.00520907, 0.00569269, 0.0057614, 0.00491818
               0.000362648, -0.000323093, -0.00296051, -8.01658e-05, 0.00102433, 0.00117081, -0.00111929, -0.000498515, -0.000794805, 0.00126702, 0.00140234, -0.0040256, -0.00165114, 0.00071929, -0.000926656, -0.00146113, 0.000204597, -0.000231048, -0.00195958, 0.00123752, 0.00115095, 0.00169816, -0.00073159, -0.000399151, -0.00303302
               0.00817917, 0.00680897, 0.00922251, -0.0386459, 0.0119597, 0.00983814, 0.0126737, 0.00066593, 0.00282648, -0.00580995, 0.0142202, -0.00230755, 0.00941681, -0.00747831, 0.00697211, 0.00426447, 0.0100968, 0.00895558, -0.0219329, 0.0140424, -0.0108408, -0.00684405, 0.0114397, -0.000781356, -0.00267145,
               -0.00889793, 0.0213655, 0.0044397, 0.0158954, -0.0097062, -0.00757215, -0.00918908, 0.0151703, -0.00457774, 0.0310571, -0.0128477, 0.00614104, -0.00799123, -0.00442039, -0.00455099, 0.0125424, -0.00872405, -0.00717138, 0.0135672, -0.00937499, 0.0219107, -0.00293634, -0.00932541, 0.00491089, -0.00507619,
               -0.0120026, 0.00239427, -0.00590655, 0.0180561, -0.0111845, -0.00981094, -0.000775316, -0.00966109, -0.0123123, -0.00380526, -0.00898351, 0.0132835, -0.00985997, 0.00257129, -0.0131401, 0.00354328, -0.0103016, -0.00895093, 0.00136879, -0.00835307, -0.00658322, -0.00796222, -0.0111357, 0.0118726, -0.00135467,
               0.00674928, -0.00764219, 0.0117369, -0.0341646, 0.010405, 0.00802683, 0.00716955, -0.00802307, 0.00299069, -0.0105319, 0.0112711, -0.0133521, 0.00766313, -0.0113387, 0.00745949, -0.011836, 0.00821661, 0.00707365, -0.0223566, 0.0107901, -0.014385, -0.00674849, 0.00971474, -0.00959324, -0.00520113,
               -0.0271346, 0.0288171, -0.0151297, 0.032097, -0.0345783, -0.0271601, -0.03638, 0.00849755, -0.0275317, 0.0239391, -0.0348944, 0.0394479, -0.0271817, -0.00581605, -0.0294931, 0.0371748, -0.0261626, -0.0250161, 0.0551359, -0.0262503, 0.0402581, -0.0113201, -0.0278302, 0.038254, -0.00614855,
               0.00238743, 0.00128006, 0.00060292, -0.00662686, -0.000844061, -0.00080287, -0.0068582, -0.00156213, 0.000270679, 0.000222163, 0.000170176, -0.00400759, -0.000913499, -0.00824232, -0.000756148, -7.62923e-05, 0.00278531, -0.00124023, -0.000314847, 0.00363871, -0.00126391, -0.00364274, 0.00371794, -0.00686854, -0.00427036,
               0.0219229, 0.00365718, 0.00480303, -0.043705, 0.0150243, 0.0174793, 0.0102977, -0.00867354, 0.0109263, -0.00717239, 0.0152079, 0.000424998, 0.0168986, -0.00660889, 0.0139697, -0.000310665, 0.0234433, 0.0161811, -0.0153765, 0.0290291, -0.0075087, 0.0042678, 0.0260012, 0.00340288, 0.00535989,
               0.00192438, 0.0164556, -0.0209133, -0.0154165, -0.004268, 0.000899249, -0.0100712, 0.0333827, 0.00841247, 0.0227715, -0.00852638, 0.00540386, 0.000415665, -0.0035298, 0.00454913, 0.0115565, 0.00143987, 0.00115564, 0.00285185, -0.00269264, 0.0126552, 0.00240272, 0.00121424, 0.00225258, 0.00212029,
               0.00892564, -0.00374353, -0.0144646, 0.00961526, 0.00128962, 0.00413338, -0.00985979, -0.0170714, 0.00662933, -0.00410564, -0.000662405, -0.00644714, 0.00417307, 0.00160367, 0.00426612, -0.00755243, 0.00859177, 0.00361364, -0.00100034, 0.00842928, 0.000385713, 0.0082527, 0.00902711, -0.00386177, 0.00475807,
               0.0210192, -0.00713591, -0.0451439, -0.000238612, 0.0138758, 0.0165957, 0.00525454, 0.00437181, 0.0221954, 0.00646575, 0.00823126, -0.0163432, 0.016487, 0.0049372, 0.0247041, -0.013441, 0.0198243, 0.016009, -0.00708112, 0.0160767, -0.00568827, 0.0160244, 0.0206678, -0.0172516, 0.0110874,
               -0.0137951, 0.00206381, 0.00267921, 0.0181041, -0.0118246, -0.0108875, 0.0027954, -0.00535548, -0.0112131, 0.00305481, -0.00827083, 0.00528185, -0.0113359, -0.00241985, -0.0132378, 0.000479633, -0.0116163, -0.00994101, 0.00407081, -0.00927597, -0.00279298, -0.0123, -0.0120986, 0.00836002, -0.00278526,
               0.0297441, -0.00376854, 0.00983256, 0.0133414, 0.0206228, 0.0323466, 0.0201574, -0.00835453, 0.0223904, -0.0118265, 0.0229495, 0.00487262, 0.032066, 0.0147563, 0.0217625, 0.000896337, 0.0314607, 0.0330453, -0.0128558, 0.0297059, -0.0156281, 0.0194378, 0.0271745, 0.0130553, 0.0358076,
               -0.000759726, 0.0208632, 0.0074509, 0.00472411, 2.63837e-05, -0.000968809, 0.00547118, 0.0100645, -0.00387985, 0.0137986, 0.00566693, 0.0279553, -0.00138518, -0.000380697, 0.000681251, 0.0250519, 0.000885939, -0.00124274, 0.0123205, 0.00365854, 0.0147786, -0.00457695, 0.00153684, 0.0217647, -0.000159258,
               -0.0123029, 0.0129791, 0.000124181, 0.0229178, -0.0110771, -0.00953562, 0.00274066, 0.00858383, -0.0124952, 0.0111556, -0.0071382, 0.020728, -0.00993427, 0.000259869, -0.0142314, 0.0110426, -0.0100017, -0.00872472, 0.00972309, -0.00624785, 0.0105831, -0.0118546, -0.0105048, 0.0170448, -0.00156393,
               0.00922051, 0.00483831, 0.00515187, -0.0370335, 0.0071132, 0.00609341, 0.00247324, -0.00402694, 0.00109267, -0.00613791, 0.00888719, 0.00310216, 0.00550154, -0.0139333, 0.00507886, 0.00259373, 0.0109596, 0.00473648, -0.0129161, 0.0161242, -0.00529521, -0.00666483, 0.0132299, 0.00528668, -0.00507936,
               0.0156075, 0.0137132, -0.01108, 0.00985374, 0.00522754, 0.00735438, -0.00662568, -0.00187429, 0.00763019, 0.00634974, 0.0034664, 0.0115818, 0.00703929, -0.00509561, 0.00995278, 0.0124495, 0.015244, 0.00601286, 0.0133921, 0.0193975, 0.0162911, 0.00208785, 0.0171294, 0.011579, 0.00201294,
               0.00523503, 0.00773807, 0.0067637, -0.0201428, 0.0108857, 0.00738706, 0.0140012, -0.00103503, 0.00136114, -0.00482333, 0.0152537, 0.0048947, 0.00706932, -0.00622788, 0.00585704, 0.00865654, 0.00751515, 0.00688171, -0.0144425, 0.011767, -0.011414, -0.00961221, 0.00862721, 0.00791215, -0.00302719,
               0.0232169, 0.0220755, -0.0261992, -0.00228353, 0.0194107, 0.0241718, 0.0101009, 0.0390739, 0.0331498, 0.0263775, 0.014041, 0.0131083, 0.023654, 0.01227, 0.0235316, 0.0175683, 0.0226689, 0.0240886, 0.00791593, 0.0135716, 0.0126957, 0.0132049, 0.0219186, 0.0125948, 0.0155724,
               0.000322369, 0.00587827, 0.00119726, -0.000604575, -0.00217398, -0.00216023, -0.00688309, -0.00108978, -0.00196568, 8.67335e-05, -0.000297172, 0.00765444, -0.00247649, -0.00926309, -0.00298761, 0.00671722, 0.00115111, -0.00277246, 0.00276752, 0.00263029, 0.00262292, -0.00525171, 0.00203631, 0.0139376, -0.00549586,
               -0.00740731, 0.018473, -0.000801267, 0.000782529, -0.00743153, -0.00714426, -0.00642779, 0.00974624, -0.00892215, 0.00622954, -0.00269718, 0.0248752, -0.00726703, -0.00352288, -0.00854593, 0.022247, -0.00569817, -0.00687029, 0.0030986, -0.00353792, 0.00698388, -0.00637309, -0.00567973, 0.038248, -0.00316418,
               -0.0200889, 0.0235239, -0.0104985, 0.0237855, -0.0210956, -0.0170687, -0.0119992, 0.0125151, -0.0214547, 0.0141232, -0.020442, 0.0410558, -0.0170402, 0.00373616, -0.0222283, 0.0273732, -0.0179402, -0.0158361, 0.0234092, -0.0168806, 0.0174705, -0.00782865, -0.0195675, 0.0371443, -0.000517434,
               0.0124672, 0.00453936, -0.0646601, 0.00336288, 0.0170548, 0.0229263, 0.016327, 0.0105632, 0.0181664, 0.0116236, 0.00480994, 0.00836948, 0.0230277, 0.0552207, 0.0165016, 0.00801337, 0.0137978, 0.0262248, 0.0139333, 0.00803503, 0.00677864, 0.0461472, 0.00640572, 0.0149927, 0.0506171,
               0.0125113, 0.000741315, -0.0488324, 0.00487206, 0.0183847, 0.0195177, 0.0174943, 0.00276525, 0.0159728, 0.00567252, 0.00958123, 0.00712126, 0.0193123, 0.0395135, 0.0156328, 0.00413785, 0.0138356, 0.0215053, 0.00618738, 0.0112441, -0.000485454, 0.0332543, 0.00854582, 0.0135501, 0.0332157,
               -0.00733668, 0.0277311, 0.046399, 0.00456992, -0.0132247, -0.00679641, -0.00984411, 0.0412943, 0.0106663, 0.0271052, -0.0124833, 0.0147929, -0.00757298, -0.017197, -0.00421042, 0.0291026, -0.00795424, -0.00668032, 0.010094, -0.0238989, 0.019711, -0.0236954, -0.0107336, 0.0139976, -0.0145687,
               0.0307709, -0.011202, 0.0226076, 0.0357004, 0.0272904, 0.0378341, 0.0297699, -0.0196874, 0.0265455, -0.0196349, 0.0321785, -0.000455171, 0.037756, 0.0232672, 0.0265545, -0.0095261, 0.0336122, 0.0394165, -0.0174765, 0.0348025, -0.0224062, 0.0230154, 0.0308594, 0.00776814, 0.0475746
               -0.0703817, -0.0365102, -0.0561357, -0.0663436, -0.0493873, -0.0650564, -0.0640228, -0.0238766, -0.0580646, -0.0325286, -0.0560392, -0.053767, -0.063756, -0.0529775, -0.0674609, -0.0530698, -0.0703232, -0.0219003, -0.0618182, -0.0632547, -0.0538079, -0.0299529, -0.0266958, -0.0073997, -0.0415788
               -0.0363016, -0.0231253, -0.0169468, -0.0384539, -0.0204322, -0.0372939, -0.0414507, -0.0200688, -0.0411877, -0.0361535, -0.0162656, -0.0329653, -0.0311521, -0.0108694, -0.0390404, -0.0451299, -0.0348514, -0.0163675, -0.0377673, -0.0306669, -0.014872, -0.0280118, -0.0273828, -0.00495495, -0.0368038,
               -0.0308513, 0.016761, 0.0156763, -0.0306015, 0.0145947, -0.0108371, -0.0333659, -0.00515655, 0.00278206, -0.0138792, 0.0198104, -0.0439075, 0.000822874, 0.0112582, -0.0235129, -0.0153153, -0.0277669, -0.0728734, -0.0130364, -0.00426265, 0.0207142, -0.0228976, -0.0312966, -0.0745314, -0.0669213,
               -0.0214309, 0.00196492, -0.0712108, -0.00594077, -0.0362606, 0.00569866, 0.0126069, 0.0271825, 0.0116134, 0.0495368, -0.0585525, 0.0114971, -0.040214, -0.0609308, 0.0102407, 0.0433808, -0.0471766, -0.0205681, -0.00845122, -0.0330387, -0.0705475, 0.0610323, 0.0597684, -0.0173728, 0.068256,
               -0.0676245, -0.0181946, -0.0564371, -0.0515692, -0.0122988, -0.0315253, -0.0478135, 0.0054817, -0.0253162, 0.0128456, -0.0618585, -0.0653564, -0.0525434, -0.0570076, -0.0432602, -0.00358351, -0.062216, 0.00634121, -0.0257803, -0.0486775, -0.0460004, -0.0158767, -0.0336796, -0.00015499, -0.0847912,
               -0.0370937, -0.0149865, -0.0175587, -0.0401614, -0.0158586, -0.03781, -0.0402886, -0.00628442, -0.0293381, -0.0168384, -0.0157236, -0.0396283, -0.0321099, -0.0121062, -0.0382708, -0.0407254, -0.040863, -0.00991673, -0.0425666, -0.0354107, -0.0171857, -0.0263248, -0.0314301, -0.00199036, -0.0383255,
               -0.0406566, -0.0232906, -0.0186348, -0.0415577, -0.0182397, -0.0352731, -0.0460005, -0.0175952, -0.0353201, -0.0282095, -0.0186894, -0.0444175, -0.0294896, -0.013709, -0.0439201, -0.042723, -0.038845, -0.0147331, -0.0377102, -0.0341893, -0.0170737, -0.0382582, -0.0375277, -0.00960008, -0.0475129,
               -0.0394262, -0.00611247, -0.0232185, -0.0404347, -0.00817545, -0.0307365, -0.0393456, 0.0017668, -0.0158099, -0.00324219, -0.0209725, -0.0477806, -0.0384461, -0.0189425, -0.0412765, -0.0286846, -0.0481351, 0.00155032, -0.0374661, -0.0396682, -0.0223338, -0.0263889, -0.0339798, 0.00563833, -0.0428863,
               -0.0225486, 0.0165506, 0.0309427, -0.0232204, 0.000178107, -0.0106191, -0.0336897, -0.000407319, -0.0206992, -0.0327447, 0.0309815, -0.0194153, 0.00768328, 0.0208731, -0.0275856, -0.0352868, -0.00868299, -0.0826559, -0.00669678, 0.00280858, 0.0291011, -0.00363147, -0.0171286, -0.0665309, -0.0279005,
               -0.0361957, -0.0222177, -0.0159153, -0.0378709, -0.012402, -0.0352999, -0.0437556, -0.0257321, -0.0365159, -0.0361314, -0.0115729, -0.0423173, -0.0246886, -0.00466198, -0.0406054, -0.041835, -0.0333292, -0.0288835, -0.0381021, -0.03154, -0.0101622, -0.0309911, -0.0341571, -0.0198183, -0.0389455,
               -0.0296881, 0.0344566, 0.0166414, -0.0264972, 0.0143824, -0.0112242, -0.0277852, 0.00263644, 0.00443596, -0.0159805, 0.0187336, -0.0306162, -0.000155994, 0.0102266, -0.0241123, -0.0162548, -0.0249959, -0.0568796, -0.00909211, -0.00140873, 0.0180906, -0.0100878, -0.0249283, -0.0671814, -0.0493517,
               -0.0363285, -0.0118532, -0.0244895, -0.0375853, -0.0155547, -0.0324964, -0.0399162, -0.00494962, -0.0248076, -0.0146374, -0.022956, -0.0363609, -0.0359922, -0.0201184, -0.0373033, -0.0329654, -0.0434942, -0.00708881, -0.038973, -0.034232, -0.0243598, -0.0174298, -0.0223437, -0.00130328, -0.0321762,
               -0.0615435, 0.0128155, 0.00879764, -0.0592569, 0.0164332, -0.00921147, -0.0669615, 0.000440307, 0.00770535, 0.00144527, 0.0127531, -0.0627159, -0.00715853, 0.00564937, -0.0448559, -0.0128413, -0.0566077, -0.0585207, -0.0171849, -0.00818517, 0.0178544, -0.0320158, -0.0392603, -0.0598836, -0.0905825,
               -0.0404527, -0.0227645, -0.0182668, -0.0415226, -0.0178858, -0.0354502, -0.0461263, -0.0176397, -0.0351809, -0.027926, -0.0183414, -0.0447848, -0.0291068, -0.0132896, -0.0440305, -0.0429314, -0.0385232, -0.0144936, -0.0379499, -0.034163, -0.016662, -0.0382277, -0.0375382, -0.00951291, -0.04814,
               -0.0351374, -0.00813276, -0.000754463, -0.0410131, 0.000688982, -0.0334818, -0.0478943, -0.00291208, -0.0225762, -0.0112, 0.00185657, -0.0515889, -0.0119148, 0.00267247, -0.0434674, -0.0365232, -0.0280223, 0.0105489, -0.029935, -0.0253741, 0.00464566, -0.0499845, -0.0557698, 0.00569584, -0.0781463,
               -0.0342985, -0.0197634, -0.0156989, -0.0406729, -0.0180032, -0.0396477, -0.0423151, -0.0181226, -0.0376289, -0.0337346, -0.0161928, -0.042111, -0.0317744, -0.011531, -0.039863, -0.0470795, -0.0385152, -0.0182318, -0.0427049, -0.0355646, -0.0161078, -0.0332724, -0.0372218, -0.00969221, -0.0394048,
               -0.0382763, 0.00890835, 0.0161909, -0.0417441, 0.01099, -0.0156996, -0.0557912, -0.00382191, -0.0109088, -0.0101859, 0.0207182, -0.050257, -0.00235465, 0.011634, -0.0365173, -0.0263824, -0.029616, -0.0743866, -0.0177428, -0.00463753, 0.0229872, -0.0283242, -0.0348998, -0.0675836, -0.0746461,
               -0.0372724, -0.0240303, -0.0182986, -0.0392287, -0.0209431, -0.0366325, -0.0414118, -0.0191984, -0.0401723, -0.033882, -0.0176178, -0.0330511, -0.0317051, -0.0122914, -0.0392875, -0.0425626, -0.0363012, -0.015147, -0.0370992, -0.0310066, -0.0158994, -0.0282074, -0.0275746, -0.00423913, -0.0377295,
               -0.041108, -0.0232713, -0.0180368, -0.0420192, -0.0171212, -0.0348027, -0.0463424, -0.0175494, -0.0343495, -0.0268259, -0.0182369, -0.045869, -0.0284819, -0.0129753, -0.0442919, -0.0416916, -0.0392773, -0.0141106, -0.0372518, -0.0342225, -0.0162795, -0.0430988, -0.0393478, -0.0101464, -0.049911,
               -0.0667725, 0.0330376, -0.0134394, -0.0585388, 0.00940049, -0.0264142, -0.051265, 0.00505716, -0.00219306, -0.0121756, -0.0174399, -0.0410162, -0.0326476, -0.0196807, -0.0517475, -0.0148319, -0.0637898, -0.0306679, -0.0204556, -0.0143297, -0.0136471, -0.0119072, -0.0267804, -0.0430279, -0.0676681,
               -0.0391998, -0.0207404, -0.0250596, -0.0407071, -0.0303032, -0.039442, -0.0405108, -0.0112149, -0.0440713, -0.0301078, -0.0208631, -0.0260947, -0.03958, -0.0182855, -0.040231, -0.0440354, -0.0383088, -0.00551882, -0.0388097, -0.0319546, -0.0208103, -0.0196638, -0.0202757, 0.0109279, -0.0374612,
               -0.0469574, 0.0302352, -0.00786, -0.0471391, -0.000618352, -0.022114, -0.034479, 0.00267234, -0.000237122, -0.0132679, -0.00600944, -0.0200075, -0.018131, -0.00947723, -0.034657, -0.0133085, -0.0455421, -0.0634603, -0.0187459, -0.0100075, -0.00709691, 0.00658548, -0.00916603, -0.0729886, -0.0360252,
               -0.0384352, -0.012557, -0.00385091, -0.0411694, -0.00872768, -0.0414114, -0.0528422, -0.012492, -0.0360238, -0.0266195, -0.0028358, -0.044618, -0.0173552, 0.00105758, -0.0470289, -0.0515759, -0.026397, 0.00280563, -0.036978, -0.0301103, -0.000820166, -0.0469628, -0.0528911, 0.00322069, -0.0671385,
               -0.0361707, -0.0234553, -0.0198053, -0.0379085, -0.024034, -0.0373432, -0.0402333, -0.0188808, -0.0422239, -0.0354694, -0.0192641, -0.0288744, -0.0343683, -0.0146874, -0.0378375, -0.0442195, -0.0357544, -0.0154113, -0.0379929, -0.0311042, -0.0182979, -0.0242009, -0.0231217, -0.00163101, -0.0322217,
               -0.0703546, -0.00332155, 0.00688951, -0.0702461, 0.0112554, -0.00607634, -0.0674319, -0.00334949, 0.00272683, 0.00335286, 0.0100146, -0.0631016, -0.0102991, 0.00764148, -0.054981, -0.0127886, -0.0683745, -0.045967, -0.0190998, -0.0107825, 0.0170553, -0.0374106, -0.0425324, -0.0481177, -0.0841944,
               -0.041263, -0.0190333, -0.00796303, -0.0440837, -0.00914116, -0.029035, -0.0538168, -0.01348, -0.0294349, -0.0224547, -0.00855873, -0.0511132, -0.015441, -0.00379268, -0.0505108, -0.0377526, -0.0330366, -0.0046925, -0.0272206, -0.0261069, -0.00355444, -0.0509054, -0.0510453, -0.00479042, -0.0728571
               0.00190044, 0.000343316, -0.00232777, -0.000989643, -0.000921864, 0.00731832, -0.000217254, 0.00258278, 0.00249767, 0.0020128, -0.000542397, 0.00022032, 0.0022561, -6.90509e-05, 0.000499595, 0.00256195, -0.00300477, 0.00115048, -0.00306219, 0.000238743, -5.81744e-05, 0.00574643, 0.00175096, 0.00102974, -0.00163876
               0.0152512, -0.0211655, -0.0404842, -0.0069148, -0.0139237, 0.0244583, -0.00640397, 0.000435889, -0.0296162, 0.0380191, -0.0130335, -0.00494284, 0.0145429, -0.00504088, -0.0296727, -0.0391739, -0.00507946, -0.00929929, -0.0350023, -0.00587385, -0.00274372, 0.0277213, 0.000285153, 0.0312192, -0.0370457,
               -0.0141257, -0.0117383, 0.0041137, -0.00739576, -0.0103246, -0.0090158, 0.036497, -0.0143328, -0.0159612, -0.00802677, 0.0222634, 0.0121459, -0.014136, 0.0453872, 0.00071069, -0.0176056, -0.0120051, -0.00794427, -0.0157963, 0.0383417, -0.0169382, -0.00945465, -0.0138697, -0.00727938, 0.00190912,
               -0.0107088, 0.00343886, 0.00800276, -0.00580428, -0.00244091, -0.0202972, 0.00518052, -0.00994069, 0.00520464, -0.0158714, 0.000388924, -0.0140202, -0.010508, 0.00166947, 0.00312615, 0.00237578, -0.0101036, -0.0102119, 0.000612713, 0.00425098, -0.0132455, -0.0161384, -0.00977815, -0.00740235, 0.00429555,
               0.010636, -0.0290783, -0.0361221, -0.00645515, -0.0122605, 0.0281881, -0.0137165, 0.000370732, -0.0291611, 0.0299914, -0.0216979, -0.0146805, 0.0101858, -0.0123376, -0.0225947, -0.0362519, -0.00435853, -0.00733773, -0.0351954, -0.0161656, -0.00134858, 0.0275251, 0.00021898, 0.0192942, -0.0350078,
               -0.0273159, 0.0192161, 0.00567336, -0.031914, -0.0269184, -0.0300938, -0.00158849, -0.0322194, 0.0139469, -0.0301313, -0.00769576, -0.0130803, -0.0269024, -0.0011139, -0.0128772, 0.00270918, -0.0313481, -0.0278721, 0.00478696, -0.00250068, -0.0280571, -0.0269591, -0.0323394, -0.030515, 0.00456895,
               0.0026673, -0.00482637, 0.00544978, -0.00716719, -0.00677438, 0.00205256, 0.00146465, -0.00401749, -0.00326572, 0.00280116, -0.00141267, -0.00308657, 0.00294719, 0.00314609, 0.00574959, 0.00417134, -0.00577894, -0.00416579, -0.00262389, 0.00138833, -0.00217429, 0.0015607, -0.0040007, 0.0033284, 0.00192552,
               0.0250124, -0.0223433, -0.0407347, -0.00191827, -0.00709773, 0.0402455, -0.0131962, 0.00542566, -0.0182381, 0.0244035, -0.0184194, -0.00922566, 0.0239781, -0.00775026, -0.015459, -0.0283721, 0.00123271, -0.00118743, -0.0207437, -0.0126438, 0.00639421, 0.042384, 0.00508103, 0.0137403, -0.0295703,
               -0.00179064, -0.00343726, -0.015439, -0.00535146, -0.000862371, -0.00136897, 0.0224877, -0.0105065, 0.00346901, -0.0037381, 0.0125393, 0.0128314, -0.00227851, 0.022827, 0.0119983, -0.0172675, -0.00649817, 0.00156771, -0.0130926, 0.0198518, -0.00536258, -0.00380206, -0.0101541, -0.00170335, -0.00653423,
               -0.000854143, -0.0122946, 0.00685191, -0.00373941, 0.001638, -0.0020594, -0.00441326, -0.00552198, -0.0190058, -0.00696132, -0.00706891, -0.00881978, -0.000290712, 0.000598535, 0.00918788, 0.00463875, -0.00307182, 0.000110137, 0.00275268, -0.00185856, -0.00171289, -0.00532834, -0.0055797, -0.00733122, 0.00478081,
               0.00817468, -0.020895, -0.00420464, 0.0116397, 0.0191239, -0.00442926, 0.00691905, 0.00572293, -0.012786, -0.0110251, -0.00263306, -0.00315294, 0.00813694, 0.00734612, 0.022978, 0.00247967, 0.0121504, 0.0203632, 0.00922884, 0.00426787, 0.00922511, -0.00319217, 0.00607387, -0.00677704, 0.00965903,
               -0.00906232, 0.00264915, 0.00692047, -0.00698415, -0.00326618, -0.0163675, 0.0121032, -0.0104585, 0.00357966, -0.00832334, 0.00805334, -0.00658973, -0.00909112, 0.00656934, 0.00164873, 0.00221217, -0.0109857, -0.0107884, 0.00139451, 0.0111876, -0.0143401, -0.012879, -0.0102488, -0.0032188, 0.00483926,
               0.027225, -0.0159614, -0.00360182, 0.00994675, 0.00647771, 0.00881346, -0.0225389, 0.0165007, -0.00255114, 0.00584298, -0.0172355, -0.0105955, 0.0283788, -0.0218568, -0.0122189, -0.0042618, 0.0112109, 0.00885632, -0.00147794, -0.0267243, 0.0191172, 0.00507162, 0.0163274, 0.0148902, -0.00262754,
               1.00783e-05, 0.0058728, 0.00716193, -0.00963291, -0.00995841, -0.00296027, 0.0104026, -0.0077396, 0.00363946, 0.00806048, 0.00528531, -0.00306277, 0.000144874, 0.0102743, -0.000234716, 0.00638774, -0.00984091, -0.0106758, -0.0002505, 0.0100451, -0.00919578, -0.00399096, -0.0077267, 0.00592151, 0.00592942,
               -0.0073585, 0.00968493, 0.0100033, -0.0108386, -0.00868678, -0.0154368, 0.00980671, -0.0109437, 0.0115429, -0.00718417, 0.00732165, -0.00294587, -0.00721169, 0.00669743, -0.00528751, 0.00563853, -0.0130451, -0.0129861, 0.00614901, 0.0100102, -0.0145085, -0.0121071, -0.0108643, -0.00132251, 0.00601756,
               0.0140383, -0.0107698, -0.0337475, -0.00921939, -0.0149967, 0.0320905, -0.010532, -0.00184515, -0.014313, 0.0283001, -0.0117877, -0.0089536, 0.0132656, -0.00946944, -0.0177759, -0.029196, -0.00595939, -0.0084179, -0.0262978, -0.00949651, -0.000844741, 0.0352567, -0.00194861, 0.0125596, -0.0296258,
               0.0107881, 0.00499317, 7.23457e-05, -0.00429556, -0.00522479, 0.0184043, -0.00359061, 0.000288851, 0.00127095, -0.00302397, -0.00861512, -0.00445429, 0.0107202, 0.000834903, 0.00617161, 0.00126218, -0.000621237, 0.00123531, 0.00278599, -0.0037457, 0.00503978, 0.0211496, 0.000161818, -0.0024136, -0.00265073,
               0.0155378, -0.0181766, -0.0153879, -0.00384927, -0.00906236, 0.0141559, -0.00928627, 0.00247374, -0.0266698, 0.024723, -0.0175142, -0.0165135, 0.0150014, -0.0134878, -0.0284638, -0.0248179, -0.00298398, -0.00864567, -0.0205927, -0.0110066, -0.00168838, 0.0179449, 0.00227068, 0.0346319, -0.0211921,
               0.0104109, 0.0186681, -0.0211387, 0.0161516, 0.022903, -0.0158972, -0.00740464, 0.0128894, 0.0302756, -0.0319598, 0.00772198, 0.018836, 0.0122391, -0.0103339, 0.01885, -0.000258791, 0.0186688, 0.0256798, 0.000922913, -0.00772663, 0.0251243, -0.00854738, 0.0126737, -0.0145754, -0.010379,
               0.000260795, -0.000309612, 0.00696912, -0.00728593, -0.00807843, 0.00625112, -0.00417725, -0.00479564, 0.0010964, -0.003511, -0.00901516, -0.00746888, 0.000619196, -0.00341332, 0.00291337, 0.00259806, -0.00614034, -0.00526514, -0.00318482, -0.00577238, -0.00338766, 0.00233608, -0.00476919, -0.00047149, 0.00190839,
               -0.00621328, 0.0153742, 0.0108812, -0.00990041, -0.0111223, -0.00580672, 0.00453285, -0.00794717, 0.0153165, -0.00320792, 0.00430948, 0.00254761, -0.00574502, 0.00699331, 0.00404515, 0.0101826, -0.00987016, -0.00970521, 0.00146253, 0.0056915, -0.00958822, -0.00807427, -0.00793133, -0.00460875, 0.00963837,
               -0.0198874, 0.0214904, 0.00754379, -0.0193017, -0.0145845, -0.0238303, 0.00687985, -0.0202333, 0.0234981, -0.0181439, 0.00164281, -0.00620535, -0.0196734, 0.00354743, -0.00319094, 0.00511499, -0.0211626, -0.0203682, 0.00474265, 0.00695052, -0.0211623, -0.0216699, -0.0200551, -0.0194206, 0.00405041,
               -0.0187522, 0.0145567, 0.00990893, 0.00438932, 0.0116923, -0.0288502, 0.0150839, -0.00424824, 0.0207038, -0.0165961, 0.0265932, 0.0181964, -0.018842, 0.0151906, 0.0475664, 0.0126871, 0.00230934, 0.0141145, 0.00369996, 0.0188163, -0.00567418, -0.0351074, -0.00349959, -0.0316902, 0.0102439,
               0.000583583, 0.00159115, 0.0130808, 0.0127405, 0.0162377, -0.0136346, 0.00900878, 0.0100708, 0.0113257, -0.00438922, 0.0125523, 0.00213166, 0.000839872, 0.00954902, 0.043831, 0.012876, 0.0126971, 0.0197359, 0.00924431, 0.0105592, 0.00837249, -0.0207407, 0.010451, -0.0159063, 0.0135522,
               -0.0169338, 0.0238586, -0.00360907, -0.0163914, -0.00236086, -0.00744824, 0.00796279, -0.0145699, 0.0224034, -0.00245089, 0.025759, 0.0381612, -0.0154769, 0.00542873, -0.0369623, -0.00547127, -0.014689, -0.0273633, -0.0140445, 0.00970199, -0.00213872, 0.000515563, -0.0152971, 0.00298907, -0.028446,
               0.0470976, -0.0256914, 0.0449986, 0.0361639, 0.0296669, 0.0263075, -0.0155121, 0.0433305, -0.0152193, 0.0189087, -0.0167145, -0.0265346, 0.047591, -0.0132549, -0.00415302, 0.0307848, 0.0362314, 0.03115, 0.0329637, -0.0159885, 0.0418936, 0.019238, 0.0431413, 0.0465108, 0.031862
               -0.0703817, -0.0365102, -0.0561357, -0.0663436, -0.0493873, -0.0650564, -0.0640228, -0.0238766, -0.0580647, -0.0325286, -0.0560392, -0.053767, -0.063756, -0.0529774, -0.0674609, -0.0530698, -0.0703232, -0.0219003, -0.0618182, -0.0632547, -0.0538079, -0.0299529, -0.0266957, -0.0073997, -0.0415787
               -0.0440908, -0.0188313, -0.0432048, -0.0445238, -0.0421554, -0.0479709, -0.0413661, -0.0152585, -0.0456597, -0.0311315, -0.0421671, -0.0194657, -0.0510025, -0.0430466, -0.0414498, -0.0406368, -0.0427064, -0.01397, -0.0430441, -0.0368557, -0.0403974, 0.0106326, 0.00775456, -0.000157103, -0.0152516,
               -0.0183975, -0.0430129, -0.0141216, -0.0234061, 0.00141698, -0.0171634, -0.0301839, -0.047106, -0.0248798, -0.0474075, -0.0113861, -0.0476046, -0.0179016, -0.00410909, -0.00465109, 0.00819113, -0.0173049, -0.0641909, -0.00505127, 0.00247069, 0.00544972, 0.000716092, 0.00506475, -0.0403161, -0.0757112,
               -0.0658244, -0.0143394, -0.0255283, -0.0491104, 0.0066479, -0.029191, -0.0530515, 0.00659267, -0.00888893, 0.0104832, -0.0218206, -0.073429, -0.0394007, -0.0181972, -0.0388886, -0.0158098, -0.070879, 0.00862661, -0.0383459, -0.046453, -0.0174524, -0.0542594, -0.0631098, -0.00733379, -0.0637944,
               -0.0479292, -0.0166749, -0.0242484, -0.0477989, -0.019261, -0.0426357, -0.0536769, -0.00989941, -0.0317548, -0.0158597, -0.0224871, -0.0443536, -0.0389753, -0.0157907, -0.0507984, -0.0454205, -0.0513806, -0.00933107, -0.0473204, -0.0413168, -0.0244639, -0.0388082, -0.0419381, -0.00244409, -0.0272994,
               -0.0442988, -0.0176288, -0.0208702, -0.0436875, -0.0102521, -0.0423361, -0.0503932, -0.0153191, -0.027449, -0.0243761, -0.0154061, -0.0507724, -0.0353767, -0.00929311, -0.0464591, -0.0426181, -0.0503952, -0.0142647, -0.0431432, -0.0365983, -0.0152754, -0.0447553, -0.0480164, -0.00801472, -0.0334668,
               -0.0136362, -0.0366886, -0.076612, -0.0294756, -0.0877763, -0.0689458, -0.008508, -0.0206059, -0.0628266, -0.0408816, -0.0622359, 0.048832, -0.0552352, -0.0713999, -0.0227569, -0.042418, -0.0175894, -0.0360994, -0.0561977, -0.0387197, -0.069317, 0.0703096, 0.0744304, -0.0109299, 0.0430529,
               0.00243, 0.0241301, 0.00974013, 0.000924666, 0.00836817, -0.0129022, -0.0169889, 0.00959974, -0.00633642, -0.0100566, 0.00756142, -0.0190817, -0.00813311, -0.00287351, -0.00494893, -0.0115863, 0.000172605, -0.0481917, -0.0132893, -0.00751203, 0.0100713, 0.00923739, 0.00708656, -0.0522873, -0.0319283,
               -0.048612, -0.0169184, -0.0279721, -0.0485556, -0.0230952, -0.0422362, -0.0521284, -0.0105257, -0.0326675, -0.0205881, -0.0272989, -0.041713, -0.041262, -0.0246223, -0.05065, -0.0433749, -0.0519383, -0.0115817, -0.0463362, -0.0412846, -0.0284525, -0.024801, -0.0285491, -0.00424746, -0.0255553,
               -0.0174276, -0.0413479, 0.00669641, -0.0209485, 0.00879729, -0.0184048, -0.0379364, -0.0439138, -0.0303586, -0.0492416, 0.0109954, -0.0607079, -0.00526612, 0.0196149, -0.00898552, -0.0109664, -0.0101009, -0.0735252, -0.0103454, -0.00200455, 0.0246424, -0.00784624, -0.0101885, -0.0431557, -0.0850323,
               -0.00178451, -0.00308013, -0.0677141, -0.0178255, -0.0527406, -0.0328839, 0.00193924, -0.00158605, -0.0169095, -0.0070829, -0.0580837, 0.0414006, -0.0327697, -0.0645454, -0.00631892, 0.00188451, -0.0054862, -0.0177302, -0.0198346, -0.0137346, -0.0557953, 0.0631903, 0.0691047, -0.0121848, 0.0116499,
               -0.000825824, 0.003067, 0.0142781, -0.00177282, 0.0229903, -0.000867068, -0.0160669, -0.0147566, 0.00622642, -0.00902274, 0.0167718, -0.0405085, 0.00932785, 0.0145254, 0.00317677, 0.0086215, -0.00293453, -0.0689339, -0.00392387, 0.00321897, 0.0223684, -0.00564049, -0.00630384, -0.0647627, -0.0656679,
               0.00565533, -0.0191412, 0.00518505, 0.00474459, 0.0048991, 0.0102577, -0.0077498, -0.0273078, -0.00345727, -0.0201337, 0.0125575, -0.0220336, 0.0211908, 0.0183293, 0.00883897, 0.00877596, 0.00572423, -0.0785832, -0.00153023, 0.00522267, 0.0123917, 0.0170005, 0.0108908, -0.0669695, -0.0158938,
               -0.0446769, -0.0188807, -0.0422324, -0.0450946, -0.0405582, -0.0474717, -0.0419214, -0.0154132, -0.0451299, -0.0309572, -0.0410492, -0.0211555, -0.0503422, -0.0419147, -0.04169, -0.0404426, -0.0433768, -0.0137853, -0.0429596, -0.0367735, -0.0392915, 0.00890157, 0.0056333, -0.000522862, -0.0163932,
               0.00221628, 0.0295938, 0.00308416, 0.00112908, 0.0114696, -0.011105, -0.00788646, 0.00914536, 0.00513888, -0.00315452, 0.000436237, -0.0129556, -0.00837546, -0.00844635, -0.00194537, -0.00232556, -0.0034631, -0.0483565, -0.0129637, -0.00988495, 0.00195465, 0.0183963, 0.0122273, -0.0649595, -0.0221792,
               -0.0285095, 0.00739709, 0.0338058, -0.0463845, 0.0242431, -0.0578126, -0.0632137, -0.00299421, -0.0250211, -0.023948, 0.0443362, -0.0500938, 0.00193935, 0.0440114, -0.0546657, -0.0729109, -0.0197903, 0.020195, -0.0513904, -0.0141233, 0.0394794, -0.0532791, -0.0649001, 0.0198446, -0.0574717,
               -0.0584955, -0.0183291, -0.018439, -0.0488886, 0.00366225, -0.0309474, -0.0583396, -0.00910172, -0.0159947, -0.00929727, -0.013555, -0.0713134, -0.0315584, -0.00809532, -0.0397483, -0.0268712, -0.0624766, -0.00987111, -0.0400346, -0.0405855, -0.011744, -0.0520469, -0.0612001, -0.0138029, -0.0608344,
               -0.0473307, -0.0177509, -0.0239404, -0.0477795, -0.0200297, -0.0432834, -0.0536693, -0.0122626, -0.0329389, -0.0230577, -0.0224588, -0.0443181, -0.0387877, -0.0185867, -0.0511749, -0.0468201, -0.0503963, -0.0113913, -0.0476115, -0.040858, -0.0240375, -0.0317334, -0.0348993, -0.0033035, -0.0273428,
               -0.0452995, -0.0147838, -0.0188142, -0.0485209, -0.0179098, -0.047665, -0.0568824, -0.0111738, -0.0351712, -0.0258385, -0.0126704, -0.0439129, -0.0358304, -0.00952104, -0.05381, -0.0552511, -0.0467209, -0.00741741, -0.0500927, -0.0396638, -0.0146854, -0.0414942, -0.0453207, 2.16757e-05, -0.0301025,
               -0.0569228, -0.021728, -0.0245003, -0.0488646, -0.00865549, -0.0375834, -0.0570841, -0.00865131, -0.0269595, -0.0137698, -0.0216025, -0.0659163, -0.0393708, -0.0174327, -0.0465347, -0.0375016, -0.0599899, -0.00948338, -0.0444469, -0.0442882, -0.0202012, -0.0529512, -0.0625673, -0.00967872, -0.0520923,
               0.00316733, 0.0249362, 0.0108025, 0.00106215, 0.0134972, -0.01146, -0.0131316, 0.00515023, 0.000173885, -0.0103755, 0.00619288, -0.0267416, -0.0076597, -0.00290986, -0.00167094, -0.00642428, -0.000813997, -0.0566046, -0.0115251, -0.00550817, 0.0130383, 0.00238517, 0.00202397, -0.0630992, -0.0475679,
               -0.0445892, -0.0212191, -0.0245479, -0.0460286, -0.0207106, -0.0413794, -0.0500954, -0.0201465, -0.0364121, -0.0290645, -0.0236562, -0.0373351, -0.0373021, -0.0182564, -0.0475595, -0.0437394, -0.04629, -0.0192007, -0.0447491, -0.0368339, -0.0232737, -0.0246599, -0.0277185, -0.00797564, -0.0208269,
               -0.0205104, -0.0448874, -0.0693604, -0.0308524, -0.0794428, -0.0588565, -0.0116106, -0.0331411, -0.0584384, -0.0422208, -0.0560156, 0.0342959, -0.0527362, -0.0643498, -0.0213461, -0.035301, -0.0271044, -0.0406311, -0.0552156, -0.0410786, -0.0661655, 0.0667497, 0.0698861, -0.016809, 0.0318631,
               -0.0484789, -0.0166338, -0.0278278, -0.0486135, -0.0228473, -0.0422826, -0.0524467, -0.0104805, -0.0324792, -0.0204787, -0.0269855, -0.0419353, -0.0413002, -0.0242403, -0.0508829, -0.0433362, -0.0517496, -0.0110972, -0.0465144, -0.0413167, -0.0281087, -0.0254592, -0.0289552, -0.003891, -0.0257523,
               -0.0428111, -0.0271266, -0.069668, -0.0402347, -0.0600197, -0.0444743, -0.0242851, -0.0166658, -0.0391285, -0.0175977, -0.0676246, -0.00674047, -0.0617583, -0.0710258, -0.0248188, -0.011973, -0.0490121, -0.0133133, -0.0399493, -0.0434723, -0.0648088, 0.0273897, 0.0275792, -0.00656964, -0.0110606,
               -0.0593596, -0.00771122, -0.0164207, -0.0491834, 0.00125596, -0.0358875, -0.0603955, 0.00370276, -0.0180306, -0.000836733, -0.0126834, -0.0674474, -0.0367943, -0.011123, -0.0473043, -0.0326978, -0.0629822, 0.00665268, -0.0417074, -0.0419052, -0.0124696, -0.0540397, -0.0627789, 0.00198333, -0.0574123
               0.00306809, -0.000130786, -0.000871619, 0.00473327, 0.00031413, -0.000481718, -0.00138726, 0.000183888, 0.00268082, 0.000662849, 0.00275402, 0.00501715, -0.000274815, 0.000901948, 0.00191899, -0.000414363, -0.00171072, 0.00044089, 0.00241216, -0.00148403, -0.00223033, -0.000525202, -0.000515499, 0.00027066, 0.000123695
               0.0119662, 0.0223498, 0.0137583, 0.000729419, 0.0109649, 0.00102834, -0.00232705, 0.017717, -0.0250454, 0.0103634, -0.0069524, -0.00273555, 0.0111205, 0.0115847, -0.0244849, 0.028514, 0.011421, -0.00509463, -0.0131421, -0.0229835, 0.00718908, 0.00533535, 0.0119939, 0.0128444, 0.00405804,
               -0.0237709, 0.00450693, -0.0114243, -0.0266053, -0.00941866, -0.0266083, -0.00564342, 0.00900953, -0.00865487, -0.0215953, -0.0224077, -0.00266944, -0.0252683, -0.0258134, 0.0157902, 0.00653323, -0.0247886, -0.0179993, -0.0221978, 0.0149386, -0.0280621, -0.0292747, -0.000613092, -0.00630323, -0.0202552,
               -0.00499748, -0.00405814, -0.00881042, -0.00302418, -0.00533003, -0.00291246, -0.0064075, -0.0103353, 0.000945044, -0.00392907, -0.000692872, 0.000919993, -0.0054249, -0.00549559, 0.0047382, -0.00656714, -0.00539022, 0.00652724, 0.00162768, 0.0028204, -0.00461249, -0.00218075, -0.0106454, -0.0109163, -0.00654332,
               0.0160036, 0.0216453, 0.0197322, 0.00318131, 0.0133289, 0.00327808, 8.02067e-05, 0.0209706, -0.0183851, 0.0143363, -0.0064825, -6.4222e-05, 0.0157006, 0.0161973, -0.0182959, 0.0314237, 0.0159707, -0.00954508, -0.00863377, -0.0163561, 0.0099566, 0.00779183, 0.0163999, 0.0224184, 0.000302742,
               -0.0145456, -0.00861587, -0.0181006, -0.0183321, 0.0156799, -0.0179829, -0.0216526, -0.0160876, -0.0137266, -0.0150114, 0.00327609, -0.0233321, -0.0140202, -0.0139931, -0.0122057, -0.0122442, -0.0140579, 0.0360611, -0.00905797, -0.00607297, -0.0160049, -0.0148029, -0.0241956, 0.0101173, 0.0360686,
               0.00685765, 0.0233004, -0.000225791, -0.00192903, 0.0153423, -0.00189034, -0.00298881, 0.0102206, 0.00474229, 0.00673388, -0.000663798, -0.00259959, 0.00724436, 0.00738394, 0.000865892, 0.018284, 0.00721971, -3.28301e-05, 0.00245647, 0.00256432, 0.00240269, -2.48081e-05, -0.00489043, 0.0201882, 0.005115,
               0.0150351, 0.0140961, 0.0437458, -0.00210339, 0.0132511, -0.00214219, 0.00166192, 0.0175417, -0.0196247, 0.0109459, -0.00572437, -0.00541615, 0.0148579, 0.0179682, -0.0276154, 0.0181483, 0.0150639, 0.000822937, -0.0150981, -0.0279314, 0.00346818, 0.00412422, 0.0367097, 0.0176628, 0.0117505,
               -0.0120384, -0.00287668, -0.000642944, -0.0208327, -0.00718284, -0.0209429, 0.00035562, 8.18637e-05, -0.0108149, -0.010117, -0.0244985, -0.0143007, -0.0129254, -0.0119993, 0.00757428, -0.00848362, -0.012491, -0.00308666, -0.0220443, 0.000182351, -0.0168496, -0.0164289, 0.0109051, -0.00398364, -0.0074164,
               0.000511143, 0.0185646, -0.00560239, -0.0055953, 0.0101474, -0.0055116, -0.00508798, 0.00373607, 0.00251729, 0.00068521, -0.00329296, -0.00471867, 0.000700253, 0.000492678, -0.000196077, 0.0176307, 0.000816091, -0.0165558, -0.00321988, 0.00135493, -0.00456657, -0.00523901, -0.00851778, 0.0123545, -0.000170598,
               0.00344492, 0.0268861, -0.000303591, -0.00766726, 0.0214698, -0.00780589, 0.00696862, -0.00097291, 0.0113165, 0.00479411, -0.0196431, -0.00414356, 0.00360234, 0.00250054, 0.0174717, 0.00877139, 0.00381078, -0.0290039, -0.0133911, 0.0102157, -0.00317691, -0.00196125, 0.00100051, 0.0125479, -0.0180041,
               -0.00402818, -0.0029852, -0.00715929, -0.00457792, -0.00502002, -0.00451765, -0.00571334, -0.00831098, 0.00157643, -0.00260337, -0.000591577, 0.000367594, -0.00437657, -0.00432142, 0.00558108, -0.00459067, -0.00428637, -0.00318977, 0.000293548, 0.00296798, -0.0051747, -0.0031145, -0.00854804, -0.0100763, -0.0163406,
               0.0131017, -0.00750988, 0.0298579, 0.000231897, -0.010783, 3.29086e-05, 0.00685325, 0.0239993, -0.0019844, 0.0124844, -0.000798332, -0.00121755, 0.0130915, 0.0147593, -0.0164135, -0.00724517, 0.0137765, -0.00923964, -0.00426167, -0.0118065, 0.00414166, 0.00497162, 0.0399513, -0.00560127, -0.00849831,
               0.00182205, 0.0164798, -0.00371143, -0.00309054, 0.0157827, -0.00279964, -0.00522139, 0.00176574, 0.00440706, 0.00273546, 0.00218385, -0.00309543, 0.00181047, 0.00216721, -0.000158427, 0.0113045, 0.00187643, 0.000701051, 0.00310965, 0.00456979, -0.000868444, -0.0019112, -0.00373081, 0.0126762, -0.00855855,
               0.00133252, -0.0067981, -0.00560498, 0.000989081, -0.00286285, 0.001055, -0.00568536, -0.0181511, 0.00177056, 0.00194129, 0.00716021, -0.00150648, 0.00144262, 0.00168948, 0.00077197, -0.0086573, 0.00135697, 0.0081105, 0.00499227, 0.00083259, 0.00219524, 0.0041678, -0.00944654, -0.0117557, -0.00135101,
               0.0140716, 0.0135708, 0.0261497, -0.000543494, 0.0103089, -0.000478679, 0.0012082, 0.00933906, -0.0188399, 0.0116449, -0.00338853, -0.00420582, 0.0139314, 0.0157177, -0.0177997, 0.0213616, 0.0139787, 0.00944541, -0.00949546, -0.0175726, 0.00595545, 0.00451889, 0.0212506, 0.0189574, 0.0155817,
               0.0123674, 0.0101019, 0.0190552, -0.00173732, 0.0171164, -0.0015392, 0.00290295, -0.00862868, -0.00535264, 0.0107035, 0.0052201, -0.00592796, 0.013012, 0.0152106, -0.00669519, 0.0150468, 0.0131366, 0.00827656, -0.000551466, -0.00502645, 0.00441676, 0.0039718, 0.00750016, 0.0275686, 0.0333765,
               0.0125531, 0.0211038, 0.010662, 0.00228415, 0.0110345, 0.00256139, -0.000269264, 0.0150022, -0.010388, 0.0117964, -0.00159675, 0.00201985, 0.0117462, 0.0117408, -0.0112292, 0.0313148, 0.0119228, 0.00282492, -0.00467502, -0.00612646, 0.0079489, 0.00537826, 0.00807594, 0.0210311, 0.00145218,
               0.0383669, 0.0203772, 0.0177568, 0.0255835, 0.0191669, 0.0257813, 0.0214809, -0.0401338, 0.012076, 0.037177, -0.00216092, 0.00625941, 0.0412371, 0.0400716, -0.0173026, 0.0142466, 0.0399798, 0.025214, 0.00488044, -0.0236259, 0.0367664, 0.0367602, 0.00216699, 0.023256, 0.0276228,
               0.00440925, 0.0155293, 0.0012652, -0.00355374, 0.0288551, -0.00340688, -0.00411401, 0.00246021, 0.00346302, 0.00443581, 6.26845e-05, -0.00272646, 0.00453285, 0.00491167, 0.00169735, 0.0129051, 0.00464928, 0.0129655, 0.0022013, 0.00364619, -1.9988e-05, -0.00282678, -0.00357029, 0.0234935, 0.0206621,
               -0.00227456, 0.0107416, -0.00462325, -0.00657228, 0.0215831, -0.00641631, -0.00817596, -0.00455783, 0.00556055, -0.00139084, -0.00207133, -0.0037864, -0.00240168, -0.00260965, 0.00902473, 0.0132878, -0.00230565, 0.0226005, 0.000673799, 0.00713395, -0.00552902, -0.00753296, -0.00556935, 0.0138821, 0.0192813,
               -0.0116223, -0.010759, -0.0115013, -0.0118047, -8.86733e-05, -0.0116693, -0.0154315, -0.0219736, -0.00663729, -0.0129402, 0.000975658, -0.0133802, -0.0113928, -0.0109784, -0.00236836, -0.0109841, -0.011417, 0.0342641, -0.00463021, -0.00255697, -0.0116027, -0.00857911, -0.0147513, -0.00929208, 0.0294734,
               -0.0324011, -0.00871009, -0.0389451, -0.0379101, -0.0174939, -0.0384476, -0.0336273, -0.0150592, -0.0221555, -0.032283, -0.054792, -0.0385826, -0.031708, -0.0331611, -0.0151851, -0.0056626, -0.031871, -0.00593515, -0.0375492, -0.025661, -0.0329233, -0.031598, -0.0328584, -0.0197549, -0.00977898,
               -0.021886, -0.0104495, -0.0247449, -0.0276519, -0.0185807, -0.0280042, -0.0176293, 0.00330362, -0.016558, -0.0211921, -0.0393842, -0.0247226, -0.0214639, -0.0230911, -0.012037, -0.00747723, -0.0215371, -0.00554879, -0.0278138, -0.019156, -0.0230748, -0.0222, -0.0113818, -0.0181916, -0.0120961,
               0.0348672, 0.00222392, -0.00172851, 0.0287577, -0.00183835, 0.0291754, -0.0273262, -0.0221029, -0.0182068, 0.0284983, 0.0402212, -0.00236716, 0.037145, 0.0361181, -0.0568351, 0.0126334, 0.036164, -0.00682579, 0.0276907, -0.0364024, 0.044716, 0.0437243, -0.0265281, 0.00455708, 0.0066868,
               0.0354799, -0.0117503, 0.0441009, 0.0360919, -0.0159249, 0.0360857, 0.0398593, 0.0565491, 0.0436754, 0.0386764, 0.0561355, 0.0427683, 0.0348706, 0.0356291, 0.0341359, -0.0108735, 0.0354098, -0.0224394, 0.0491126, 0.0471786, 0.0361457, 0.0370566, 0.0591694, -0.00765416, -0.0208544
               -0.0703817, -0.0365102, -0.0561357, -0.0663436, -0.0493873, -0.0650564, -0.0640228, -0.0238766, -0.0580646, -0.0325286, -0.0560392, -0.053767, -0.063756, -0.0529775, -0.0674609, -0.0530698, -0.0703232, -0.0219003, -0.0618182, -0.0632547, -0.0538079, -0.0299529, -0.0266957, -0.0073997, -0.0415788
               -0.0397154, -0.0485832, -0.0476082, -0.0441651, -0.0427825, -0.0414499, -0.0360757, -0.0439394, -0.0503108, -0.0488541, -0.0478622, -0.0260734, -0.036069, -0.0367217, -0.0398454, -0.0368976, -0.0395453, -0.0491159, -0.0407786, -0.0409416, -0.0417604, 0.00465269, 0.00263817, -0.0404273, -0.0177612,
               0.0124927, -0.0413565, -0.0586756, 0.00824045, -0.0478964, -0.0278796, 0.0248352, -0.0222038, -0.026046, -0.0123039, -0.0613142, 0.0435213, -0.0268375, -0.0518804, 0.00448946, -0.0129873, 0.00224965, 0.0481543, -0.0252612, -0.0369571, -0.0590692, 0.0324525, 0.0365069, 0.0350981, 0.0728479,
               -0.0250754, -0.0367866, -0.0700567, -0.0360001, -0.0794583, -0.0704158, -0.0251483, -0.0318229, -0.0694408, -0.0526527, -0.0556277, 0.0222238, -0.0562787, -0.0640845, -0.0304843, -0.0527886, -0.0219181, -0.0553852, -0.0561662, -0.0455961, -0.0614689, 0.0696907, 0.0598002, -0.0350354, 0.0370434,
               -0.0542451, -0.0431986, -0.0367201, -0.0501844, -0.024988, -0.0257374, -0.049673, -0.0284673, -0.0355589, -0.0301943, -0.0370223, -0.056483, -0.0364075, -0.0274055, -0.0444141, -0.0261227, -0.0556655, -0.0345048, -0.0399488, -0.043214, -0.0341316, -0.0318352, -0.027322, -0.0310158, -0.0659803,
               -0.000332267, -0.0379698, -0.0723228, -0.00221528, -0.0473236, -0.0324219, 0.0130078, -0.023322, -0.0236248, -0.00884164, -0.0780554, 0.0297352, -0.0506161, -0.0645187, -0.00913597, -0.012569, -0.0106186, 0.0516467, -0.0300662, -0.0465722, -0.0770347, 0.0276518, 0.035362, 0.0499289, 0.0688575,
               -0.0544056, -0.0434331, -0.036788, -0.0501258, -0.0247924, -0.0252915, -0.0494258, -0.0285184, -0.0355106, -0.029996, -0.036886, -0.056994, -0.0364501, -0.0274074, -0.0444267, -0.0259156, -0.0558092, -0.0347678, -0.039874, -0.043323, -0.0344082, -0.0321358, -0.0272822, -0.0311988, -0.066801,
               -0.0451876, -0.00615995, -0.0323567, -0.0436003, -0.0344796, -0.0443274, -0.0559448, -0.00120264, -0.044938, -0.0275963, -0.0274993, -0.0306111, -0.0497274, -0.0299237, -0.0477212, -0.052354, -0.0439011, -0.0153814, -0.0460876, -0.0364749, -0.0322193, 0.000915846, -0.00554758, 0.0011834, -0.0266341,
               -0.00886813, 0.0297499, -0.0773402, -0.00945861, -0.0389598, -0.0326236, 0.0153702, 0.0309338, -0.00238543, 0.0262149, -0.0673553, 0.0458873, -0.0542862, -0.0847077, 0.00245668, 0.0115831, -0.0143205, 0.0227435, -0.0243504, -0.0364455, -0.0731966, 0.0773942, 0.0654216, 0.00423126, 0.0589757,
               -0.052512, -0.0187881, -0.0251959, -0.0478747, -0.0210568, -0.0385197, -0.0563809, -0.00416128, -0.0359141, -0.0175228, -0.0229412, -0.0559275, -0.0415568, -0.0220279, -0.0473814, -0.0413643, -0.0536288, -0.00488407, -0.0442417, -0.0416026, -0.024899, -0.0538505, -0.0515162, 0.00406367, -0.0667779,
               -0.0415515, -0.0415004, -0.0439142, -0.0455003, -0.0412595, -0.0417447, -0.0392284, -0.0365598, -0.049242, -0.0460207, -0.0453157, -0.0278444, -0.0400072, -0.0361017, -0.0418593, -0.0388008, -0.0413945, -0.0427664, -0.0412168, -0.0403616, -0.0399809, 0.00233164, -0.000281795, -0.0333747, -0.0237957,
               -0.0633268, -0.0437011, -0.049042, -0.0518703, -0.0219703, -0.0202931, -0.0433016, -0.0179056, -0.0276165, -0.0154044, -0.0498794, -0.0614415, -0.0452278, -0.0420194, -0.0352229, -0.00513047, -0.0671677, -0.0300179, -0.0347785, -0.0486382, -0.04323, -0.033944, -0.0286735, -0.0337174, -0.087388,
               -0.0522111, -0.0179981, -0.0347001, -0.0464818, -0.0284693, -0.0322715, -0.0507697, -0.00338206, -0.0324928, -0.0153956, -0.0317031, -0.0459326, -0.042554, -0.03076, -0.0443409, -0.0324782, -0.0579753, -0.0124877, -0.0437052, -0.0444286, -0.0344189, -0.0256173, -0.0256619, -0.00440516, -0.0605814,
               -0.0388958, -0.0525142, -0.0479796, -0.0441772, -0.0428239, -0.0417504, -0.0352257, -0.0484764, -0.0519917, -0.0523976, -0.0485994, -0.0269777, -0.0341562, -0.0357332, -0.039488, -0.0372602, -0.0383289, -0.0517019, -0.0407152, -0.0409927, -0.0413844, 0.00207163, 0.00117098, -0.0428827, -0.0160972,
               -0.0383064, -0.0540803, -0.0522115, -0.0447314, -0.0475898, -0.0454859, -0.0343786, -0.0513143, -0.0563852, -0.0546547, -0.0511394, -0.024131, -0.0368605, -0.0383628, -0.0397333, -0.0357358, -0.0378873, -0.0550993, -0.0430303, -0.0428923, -0.0446501, 0.00937523, 0.00843607, -0.045809, -0.0116558,
               -0.0516603, 0.00513159, -0.0179981, -0.0456828, -0.016351, -0.0475611, -0.0591234, 0.0191787, -0.0339441, 0.00153377, -0.0152531, -0.0487757, -0.0501477, -0.0198076, -0.0523154, -0.0484129, -0.0528236, 0.0226373, -0.0435264, -0.0389256, -0.0189395, -0.0544291, -0.0548266, 0.0320633, -0.0601735,
               0.0200617, -0.0469184, -0.0583807, 0.0135726, -0.0459461, -0.0342049, 0.0383396, -0.0292964, -0.022141, -0.016958, -0.0568882, 0.0472623, -0.017505, -0.049073, 0.0190819, -0.00943826, 0.00503834, 0.0333039, -0.02948, -0.0343534, -0.0511961, 0.031515, 0.030484, 0.0118893, 0.0659568,
               -0.0386159, -0.0512479, -0.0484272, -0.0438535, -0.0434044, -0.0425001, -0.0347391, -0.0477185, -0.052065, -0.0519436, -0.0490899, -0.0261369, -0.0350126, -0.0366034, -0.0393905, -0.0378328, -0.0382985, -0.0512301, -0.0409396, -0.0411983, -0.0419228, 0.00359065, 0.00187542, -0.0425027, -0.0154491,
               -0.0124538, -0.0637464, -0.0438791, -0.0154391, -0.0728701, -0.0394516, 0.00900097, -0.0366978, -0.0751262, -0.0560733, -0.0523833, 0.00232164, -0.0595283, -0.0434865, -0.013119, -0.0260958, -0.00100159, -0.00324239, -0.00687228, -0.0193451, -0.0421366, -0.0156085, 0.0177764, 0.042978, 0.0103565,
               -0.0593121, -0.0330887, -0.0388089, -0.0516466, -0.0126697, -0.0269445, -0.049124, -0.0160623, -0.0239401, -0.0128872, -0.0361485, -0.0614115, -0.0405009, -0.0296798, -0.0424298, -0.0180051, -0.0632554, -0.0222044, -0.0402437, -0.0457396, -0.032722, -0.0483006, -0.0445071, -0.022553, -0.0808845,
               -0.0550459, 0.00288485, -0.0254932, -0.0453081, -0.0136059, -0.0403401, -0.0495073, 0.0139243, -0.026423, 0.00294995, -0.0230672, -0.0512685, -0.050017, -0.0263452, -0.0442345, -0.0339831, -0.0584778, 0.0133739, -0.0395592, -0.0415594, -0.0240805, -0.0528623, -0.0527001, 0.0164066, -0.0713191,
               -0.0462061, -0.0509313, -0.0397712, -0.0454773, -0.0291925, -0.0285801, -0.0406911, -0.0412173, -0.0400225, -0.0411444, -0.0420027, -0.0462236, -0.033416, -0.0279021, -0.0400054, -0.0252695, -0.0502332, -0.0432979, -0.0383547, -0.0416198, -0.0353814, -0.0233405, -0.0180826, -0.0388617, -0.0457515,
               -0.04618, -0.0516907, -0.0389702, -0.0452946, -0.0282281, -0.0270187, -0.0406012, -0.0420205, -0.0403808, -0.0425582, -0.0425955, -0.0471081, -0.0327688, -0.0281712, -0.0401572, -0.0247826, -0.0446928, -0.043353, -0.0330755, -0.0366885, -0.0348975, -0.0299243, -0.0230108, -0.0386879, -0.0452348,
               -0.0156064, -0.0171335, -0.0772294, -0.036749, -0.0851401, -0.0731219, -0.0176057, -0.007566, -0.0673517, -0.0436492, -0.0666396, 0.0414767, -0.0676936, -0.0781023, -0.0295737, -0.0568589, -0.00788981, -0.0337148, -0.0565476, -0.0426314, -0.0717521, 0.0785119, 0.0692979, -0.00693, 0.061347,
               0.0079776, -0.0350213, -0.0708782, 0.00109639, -0.0600018, -0.0447214, 0.0200379, -0.0250662, -0.029013, -0.0105444, -0.0747041, 0.0440337, -0.0434745, -0.065337, -0.00475938, -0.0165084, -0.00517739, 0.0375914, -0.0382346, -0.0496238, -0.0783261, 0.0421286, 0.0423961, 0.0305852, 0.0714239,
               -0.00935513, -0.0682671, -0.0573229, -0.0171703, -0.0707853, -0.0473556, 0.00198321, -0.0415807, -0.0658177, -0.0495442, -0.061084, 0.0129103, -0.0544969, -0.0505241, -0.0167131, -0.0365701, -0.0109897, 0.00546972, -0.0323597, -0.03907, -0.053864, 0.00567054, 0.0278421, 0.0382082, 0.0400329