
               -0.0065314, 0.202622, 0.0649992, 0.172334, 0.00662567, 0.14006, 0.0795172, 0.112811, 0.0623302, 0.102938, 0.141358, 0.120012, 0.120645, 0.130619, 0.0224992, 0.0343609, -0.00838482, 0.0525015, -0.004026, 0.0410164, -0.012436, 0.18826, 0.184341, 0.0490288, 0.114997
               1.02913, 1.1049, 1.07515, 1.03695, 1.065, 1.15759, 1.0059, 1.05532, 1.04335, 1.03774, 1.11326, 1.10589, 1.11319, 1.1107, 1.04976, 1.05241, 0.945389, 1.03531, 1.01925, 1.05538, 1.06266, 1.08662, 1.09708, 1.05659, 1.07519
               0.0563092, 0.0282666, 0.0262045, 0.0139134, 0.0283473, 0.0544006, 0.0161095, -0.0134022, 0.0165938, -0.00368473, 0.058815, 0.010799, 0.0363725, 0.0329497, 0.0337779, -0.00694741, 0.0426761, 0.00440934, 0.000875361, 0.0357635, 0.0366554, -0.00198757, -0.0141247, 0.0122008, -0.0223612
               0.926942, 1.00428, 1.0188, 0.991772, 0.997099, 1.00446, 0.995297, 1.00122, 1.01383, 1.00328, 0.99922, 0.992942, 1.01199, 1.02529, 1.00134, 1.0145, 0.979141, 1.00513, 1.02088, 0.988266, 0.998654, 0.989742, 0.988849, 1.00267, 0.990625
               0.0703754, 0.057003, 0.063439, 0.0816505, 0.0508542, 0.076422, 0.0519133, 0.0634702, 0.0779721, 0.0818382, 0.0510667, 0.0510519, 0.076782, 0.0766461, 0.0613448, 0.0512859, 0.0757411, 0.0718119, 0.0553994, 0.0775888, 0.0571219, 0.0663284, 0.0810478, 0.0521693, 0.0751887
               1.09048, 1.07903, 1.09099, 1.11174, 1.06754, 1.0882, 1.06108, 1.08711, 1.0974, 1.11179, 1.06956, 1.06916, 1.09838, 1.09362, 1.09186, 1.06546, 1.09398, 1.09799, 1.07344, 1.10861, 1.07901, 1.09575, 1.10903, 1.06752, 1.10197
               0.000938, -0.00922665, -0.00767412, 0.0150321, -0.0160251, 0.0378851, -0.0208317, -0.00216707, 0.0507322, 0.0144769, -0.0163226, -0.0132353, 0.0288283, 0.0606889, -0.00440152, -0.0213914, 0.0381435, -6.01435e-05, -0.0132223, 0.00927216, -0.00671729, 0.00245917, 0.0274491, -0.00955488, 0.00583822
               0.00453755, 0.00431585, 0.00267432, 0.00453799, 0.00284445, 0.00407674, 0.00240671, 0.00426625, 0.00445255, 0.00458867, 0.00278468, 0.0027956, 0.00490121, 0.00478007, 0.00321174, 0.00277836, 0.00513378, 0.00292301, 0.00405468, 0.00310127, 0.00424176, 0.00357307, 0.00419099, 0.00238863, 0.00288754
               0.0237173, 0.197953, 0.137142, 0.195419, 0.021798, 0.118042, 0.0903341, 0.194679, 0.124137, 0.109229, 0.194988, 0.118574, 0.131829, 0.149617, 0.0945359, 0.0595342, -0.0270573, 0.103447, 0.027922, 0.0649307, -0.0112662, 0.138003, 0.152535, 0.120584, 0.105454
               1.04214, 1.11667, 1.16199, 1.06257, 1.03031, 1.08109, 1.02934, 1.11715, 1.11561, 1.11666, 1.13418, 1.04736, 1.1097, 1.11712, 1.08301, 1.05608, 1.03748, 1.10491, 1.05184, 1.04414, 1.01354, 1.03535, 1.04607, 1.04289, 1.08761
               -0.190448, -0.230062, -0.08343, -0.238413, -0.162654, -0.258199, -0.235157, -0.0752108, -0.118256, -0.105631, -0.222778, -0.249093, -0.225951, -0.0624353, -0.115079, -0.1972, -0.257102, -0.0339002, -0.300686, -0.193829, -0.0895904, -0.144164, -0.110577, -0.0546688, -0.376935
               1.3149, 0.782656, 0.875012, 0.944614, 0.811698, 0.745176, 0.947673, 0.969609, 0.961061, 0.996645, 0.745111, 1.13112, 0.748546, 0.826024, 0.939664, 0.826093, 0.917525, 0.979087, 0.928233, 1.04301, 1.01478, 0.830256, 1.01907, 0.965712, 1.27504
               0.0537907, 0.070359, 0.0793715, 0.082043, 0.0865973, 0.0540463, 0.0634966, 0.0539471, 0.0706979, 0.0699372, 0.0611171, 0.0788737, 0.0698245, 0.0664484, 0.0698281, 0.0550125, 0.0582275, 0.0767027, 0.0579126, 0.0703626, 0.0834514, 0.0522212, 0.0898114, 0.0944472, 0.0859627
               1.06324, 1.07548, 1.09652, 1.09859, 1.11008, 1.06864, 1.08346, 1.06412, 1.07704, 1.07475, 1.09448, 1.10143, 1.07543, 1.09656, 1.07526, 1.07392, 1.07811, 1.09801, 1.08065, 1.07553, 1.10418, 1.07436, 1.10705, 1.12704, 1.10475
               -0.0204096, 0.0823072, 0.00778238, 0.0226454, 0.0117406, -0.0251733, 0.00435121, -0.0236437, 0.0568167, 0.0815385, -0.00134829, 0.0274455, 0.0879757, -0.0138355, 0.0726199, -0.0196041, -0.0311963, -0.00766575, -0.024547, 0.0766107, 0.0233, -0.0328346, 0.0526008, 0.0122897, 0.02711
               0.00262836, 0.00395936, 0.00313788, 0.0033272, 0.00301885, 0.00286861, 0.00365516, 0.00253144, 0.00323427, 0.00385617, 0.00309338, 0.00301135, 0.00420943, 0.0029913, 0.00358133, 0.00286264, 0.00347789, 0.0025946, 0.00326912, 0.00375254, 0.00323424, 0.00317104, 0.00418171, 0.00335088, 0.00306481
               0.0208778, 0.181226, 0.147647, 0.155745, -0.0825661, 0.15923, 0.141746, 0.0576495, 0.198594, 0.121329, 0.152707, 0.0421429, 0.202788, 0.149989, 0.136377, 0.150423, 0.107235, 0.0656781, 0.157308, 0.015461, 0.101922, 0.102973, -0.0620131, 0.109345, 0.0540283
               1.06019, 1.02428, 1.05589, 1.00646, 1.03395, 1.10094, 1.02825, 1.08816, 1.0801, 1.06051, 1.11759, 0.95083, 1.08398, 1.10872, 1.04952, 1.07742, 0.964577, 1.03095, 1.11006, 1.01661, 0.995757, 0.968911, 1.01875, 1.02566, 1.04131
               -0.315918, -0.505185, -0.337072, -0.554229, -0.407841, -0.509488, -0.509109, -0.249212, -0.314297, -0.294533, -0.515399, -0.409832, -0.450346, -0.273525, -0.357665, -0.40357, -0.483133, -0.110301, -0.596242, -0.375563, -0.365213, -0.272123, -0.0758252, -0.0770735, -0.682479
               1.64409, 0.684206, 0.558326, 0.823, 0.753583, 0.630123, 0.894989, 0.865514, 0.766338, 0.872476, 0.565829, 1.18247, 0.602151, 0.620225, 0.733835, 0.66533, 0.905718, 0.923815, 0.807337, 1.14433, 0.977118, 0.782975, 1.10741, 0.940179, 1.23268
               0.0659226, 0.0769845, 0.0751382, 0.0687925, 0.0626677, 0.0731684, 0.0723795, 0.0609717, 0.0630075, 0.068339, 0.0686172, 0.0734154, 0.0624365, 0.0733686, 0.0686091, 0.0732751, 0.072803, 0.0725426, 0.063545, 0.0713608, 0.073281, 0.070158, 0.067516, 0.0725754, 0.0657964
               1.08563, 1.10208, 1.10248, 1.08643, 1.08717, 1.09896, 1.11103, 1.07671, 1.07816, 1.0896, 1.09267, 1.09033, 1.07703, 1.10612, 1.08821, 1.09205, 1.09863, 1.10513, 1.07867, 1.08983, 1.09127, 1.08502, 1.08593, 1.10606, 1.09088
               0.014385, 0.0396832, 0.0172091, 0.00878806, -0.00766372, 0.0160466, 0.00899725, 0.0221316, 0.0115996, 0.0262361, 0.00752043, 0.0207835, 0.00783675, -0.000847056, 0.0164039, 0.0150419, 0.0157446, 0.00465696, 0.00863339, 0.00910066, 0.0226115, 0.0236537, 0.00313442, 0.00384538, -0.0237794
               0.00297075, 0.0027332, 0.00264664, 0.00295102, 0.00309054, 0.00252134, 0.00324345, 0.00250464, 0.00268652, 0.00283773, 0.00249438, 0.00314423, 0.00274037, 0.00260878, 0.0027842, 0.0030727, 0.00304108, 0.00254101, 0.00267757, 0.00286008, 0.00313043, 0.00319243, 0.00309169, 0.00261476, 0.00330555
               0.00130025, 2.27837e-05, -0.00106687, -0.000276582, 0.00389723, 0.00332553, 0.000516549, 0.00181362, -0.000162722, -0.000619177, 0.000162904, 0.00261888, -0.00114648, 0.00334707, -6.42771e-05, 0.000823925, 0.00077335, 0.000239936, -0.000158989, 0.00149093, -0.000252489, -0.00239085, 0.00200266, -0.00353459, -0.00307039
               -0.00867327, -0.0113669, 0.0099596, 0.00300971, -0.00943465, 0.00380061, -0.00975494, -0.00966159, -0.00237536, 0.002943, -0.00791528, -0.00829996, 0.00690229, -0.00188423, -0.00312322, -0.00979232, 0.00573254, 0.0079726, -0.0110777, 0.0138497, -0.0110451, -0.00522919, -0.0130133, -0.00588731, 0.0109553,
               -0.0100908, -0.01057, 0.0156924, -0.00586325, 0.0333255, -0.00294919, 0.0122931, -0.00681482, -0.00784416, -0.00601367, 0.0353076, 0.0353729, -0.00130802, -0.00188597, 0.0286599, 0.0302577, -0.0016995, -0.0105167, -0.00676796, 0.0465352, -0.00919699, 0.047683, -0.00847987, 0.037807, 0.00133043,
               -0.00404847, -0.0110311, -0.0153463, 0.000862619, -0.000656213, -0.00284647, -0.0166196, -0.00557597, 0.010619, 0.00135364, -0.00213125, -0.000752295, 0.000517975, 0.00786724, -0.00382662, -0.000667728, 0.00406158, -0.0121873, -0.0102559, -0.00229409, -0.0101753, 0.00977222, 0.0199277, -0.0036422, -0.0186529,
               0.00148551, 0.00579694, -0.0157607, -0.00921028, -7.55805e-05, -0.00486269, 0.0178398, 0.00208625, 0.00466079, -0.00843948, -0.00182488, -0.00109824, -0.00486348, 0.00639052, -0.0114277, 0.0024811, -0.00210668, -0.0142759, 0.0113922, -0.018656, 0.00332979, -0.00827328, 0.00769838, 0.000454975, -0.0126684,
               -0.0134803, -0.0110103, -0.00998384, 0.0236056, -0.0105891, 0.0235375, -0.00552873, -0.0114105, 0.0042389, 0.02329, -0.00942761, -0.00939396, 0.0228772, 0.00279231, -0.0103187, -0.0103662, 0.021044, -0.00582989, -0.0111657, -0.00795243, -0.0106731, -0.00854554, 0.0190301, -0.00657533, 0.00176716,
               -0.00902809, -0.0112205, 0.0556504, -0.00465423, 0.0314024, -0.005, 0.00629522, -0.00864044, -0.00295086, -0.00448756, 0.0330542, 0.0323225, -0.00121912, -5.24049e-05, 0.0560528, 0.0295817, -0.00264583, 0.0355644, -0.0108589, 0.0458776, -0.00984727, 0.0399699, -0.0134783, 0.026121, 0.0224777,
               0.0136393, 0.00949962, -0.0024189, -0.000119601, 0.00238246, 0.00447999, -0.00195071, 0.0129607, -0.00194739, -0.000889582, 0.00209075, 0.00217807, -0.000810556, -0.0037892, -0.00187762, 0.00339473, -0.00147414, 0.00147247, 0.00652401, 0.00144948, 0.00930448, -0.00372206, -0.00639517, 0.00440317, 0.00195837,
               0.00242502, -0.00305758, -0.0117428, -0.0123755, -0.0105321, -0.0200748, -0.00671956, -0.01247, -0.00811459, -0.0124083, -0.0118989, -0.0118687, -0.00708, -0.00915882, -0.00397585, -0.0115468, -0.0049524, -0.00690747, -0.00829328, -0.00911275, -0.00503715, -0.000547103, -0.0207769, -0.0164496, -0.0173296,
               -0.0103934, -0.0140841, 0.0105198, -0.00155565, -0.00557477, 0.00288254, -0.00503561, -0.0131805, 0.0248895, -0.000759256, -0.00609864, -0.00626296, -0.000213694, 0.0146358, -0.00209171, -0.00746532, 0.00328256, 0.00342324, -0.00576195, 0.00372326, -0.0129095, -0.00330179, -0.00406041, -0.0132686, -0.0172001,
               -0.0127355, -0.00357777, -0.0156653, -0.00321009, 0.00166768, -0.00622796, -0.00174741, -0.00261464, -0.00245538, -0.00240221, 0.000991541, 0.0019381, 0.00149905, 0.00218115, -0.00671586, 0.00388749, 0.00433236, -0.0181568, -0.00148347, -0.012755, -0.00336254, 0.00470219, 0.000769031, 0.00537072, -0.0168789,
               -0.00832481, -0.0105663, 0.00670864, 0.00279958, 0.0213703, 0.0136559, -0.00502396, -0.00582998, 0.0224639, 0.00262538, 0.0213134, 0.0214426, 0.0040779, 0.0267547, 0.0062606, 0.0195343, 0.0054366, 0.00779267, -0.00567059, 0.00897289, -0.00915667, 0.0140591, 0.0195633, 0.0238491, 0.0309667,
               0.0205092, 0.0231401, -0.0106382, -0.0117514, -0.002323, -0.00471962, 0.00492454, 0.0212451, -0.0142026, -0.0135725, -0.00222121, -0.00205992, -0.0131245, -0.0134284, -0.00904298, -0.00204303, -0.0142288, -0.0195137, 0.0171582, -0.0155011, 0.0229877, -0.00711943, -0.0135677, -7.70109e-05, -0.0154305,
               0.00910584, 0.00419464, 0.0020667, -0.00592127, 0.00108579, 0.00686651, -0.0124048, 0.004299, 0.0405383, -0.00595223, 0.00183935, 0.00161041, -0.00370315, 0.0363498, 0.00888241, 0.000623935, -0.00283843, 0.0511063, -0.00357969, 0.00900386, 0.00431335, -0.00137736, 0.00360694, 0.00176458, 0.0349574,
               -0.0106385, -0.00774992, -0.0109226, -0.00302731, -0.019979, 0.00130266, 0.0216909, -0.0121183, 0.0290404, -0.00302489, -0.0210338, -0.0213891, 0.000794822, 0.0287334, -0.0103466, -0.0194179, 0.00584483, -0.0119187, -0.00236203, -0.0219629, -0.00800504, -0.0169025, 0.0374263, -0.0246087, -0.0167597,
               -0.00384556, -0.00995038, -0.0116282, 0.0135205, -0.0126623, 0.0278811, -0.0213521, -0.0105008, 0.0104161, 0.0115052, -0.0114864, -0.0118982, 0.0155857, 0.0110662, -0.0137817, -0.0143764, 0.0151797, -0.00108131, -0.0246666, 0.0020282, -0.0100059, -0.00923272, 0.0166066, -0.00890414, 0.00841834,
               -0.00127813, -0.00360555, -0.0114922, 0.0284542, -0.00933713, 0.0283044, -0.0122592, -0.00362369, -0.00483191, 0.0276427, -0.00934034, -0.0094004, 0.0237799, -0.00384898, -0.0145255, -0.00999255, 0.023069, -0.0111398, -0.00455356, -0.00783136, -0.00508848, -0.011907, 0.00826234, -0.00790663, 0.000769196,
               0.00411543, 0.00632667, 0.00494277, 0.00349314, 0.00412788, 0.00687405, -0.00156987, 0.00365409, 0.00187475, 0.00312242, 0.0038217, 0.00413312, 0.00411312, 0.000641097, 0.00227179, 0.00431764, 0.00419026, 0.00226573, 0.00100232, -0.00165119, 0.00556849, 0.00216457, -0.00189248, 0.00387805, -0.000401184,
               0.00107513, -0.00286187, 0.011613, 0.00414865, -0.0114588, -0.00159498, -0.0159182, 0.00139903, 0.00481886, 0.00621122, -0.0111585, -0.0111619, 0.00829656, 0.0192209, 0.00408516, -0.0116163, 0.0114792, 0.0107053, -0.00947414, -0.00535934, -0.00179426, -0.00454201, 0.0057633, -0.0128008, 0.00622771,
               -0.00818767, -0.00806203, -0.00765353, 0.0036986, -0.00850753, -0.000605149, -0.0163458, -0.0065116, -0.00272362, 0.00534832, -0.00765474, -0.00767053, 0.00509861, -0.00267839, -0.00692169, -0.00896681, 0.00730645, -0.00767786, -0.00728087, -0.00690287, -0.00800604, -0.000872319, -0.00767935, -0.00576464, -0.00560231,
               -0.00591912, -0.00747349, 0.00478656, 0.0253021, -0.0145896, 0.0142725, -0.00851384, -0.00594657, 0.00393125, 0.0258165, -0.0135528, -0.0135861, 0.0243901, 0.00682719, -0.00376086, -0.0152189, 0.0231339, 0.0018574, -0.00911098, -0.0022727, -0.00704807, -0.00782458, 0.00319089, -0.0118194, 0.00649119,
               -0.0097241, -0.00501709, 0.0026181, 0.025716, -0.0109782, 0.0186671, -0.00448094, -0.00567722, 0.00693063, 0.0255939, -0.0091642, -0.00921106, 0.0249913, 0.00924715, -0.00558466, -0.0111069, 0.024222, 0.00277114, -0.00364092, -0.000300548, -0.00431137, -0.0143983, 0.0185102, -0.00684087, 0.00565827,
               0.0284491, 0.0246335, -0.00927525, -0.00394248, -0.011502, -0.00501176, -0.00571305, 0.027881, -0.00642866, -0.00380378, -0.0101234, -0.0101519, -0.00538238, -0.00698213, -0.0105795, -0.0120901, -0.00741732, -0.00518527, 0.0221406, -0.00318002, 0.0259292, -0.00734083, -0.00618885, -0.00326091, 0.00128146,
               0.0320227, 0.0245412, -0.0149333, -0.0110809, -0.0165628, -0.00934575, -0.00447061, 0.0309005, -0.00754355, -0.0112586, -0.0150874, -0.0153217, -0.0132898, -0.00733332, -0.0149557, -0.0169612, -0.0133733, -0.0119916, 0.0256867, -0.00115909, 0.026455, -0.0105354, -0.00782025, -0.00771853, -0.00635649,
               -0.00997551, -0.00598466, 0.00110175, 0.0133027, -0.00665669, 0.0130398, -0.00200664, -0.00533415, 0.0085908, 0.0128532, -0.00665047, -0.00684165, 0.0127414, 0.00514389, 0.00201663, -0.00546098, 0.0109921, 0.00803007, -0.00285343, -0.0107646, -0.00615515, -0.00681476, 0.0107109, -0.00604133, 0.0111025,
               -0.00361776, 0.0063942, 0.000759515, -0.0189807, 0.00485859, -0.0171655, 0.0328108, -0.00206696, -0.00841147, -0.0193139, 0.00373958, 0.00423252, -0.017856, -0.00874013, 0.000551068, 0.00844715, -0.016427, -0.0016147, 0.011185, -0.00597751, 0.0058403, 0.00177428, -0.012765, 0.00424874, -0.00280743
               -0.0360225, -0.0304961, -0.0271821, -0.0451251, -0.0387223, -0.0268425, -0.0413037, -0.0384416, -0.0251549, -0.0344087, -0.024127, -0.0316602, -0.0206687, -0.0316317, -0.0226664, -0.0329255, -0.0417686, -0.0144357, -0.0608851, -0.0483574, -0.0333501, -0.0163712, 0.0103081, -0.0125347, -0.0521149
               0.0281152, -0.0117821, -0.00450202, -0.0473209, -0.0132264, -0.0289924, -0.033612, -0.00448039, -0.0215241, -0.010102, -0.0140737, 0.0123275, -0.0375505, 0.00399405, -0.0295962, -0.0412854, -0.00155904, -0.00570086, -0.0657633, -0.018612, -0.013958, -0.0458157, -0.00742414, 0.0163525, -0.0227298,
               0.0232588, -0.00391632, 0.00882544, -0.0519917, -0.00731918, -0.0133894, -0.0352303, 0.000994365, -0.0122046, -0.0169526, -0.00642919, 0.00258656, -0.0167024, 0.00162012, -0.0174173, -0.0305905, -0.0148611, -0.00128489, -0.0596213, -0.0239484, -0.00362343, -0.0444054, -0.00606694, 0.0102962, -0.0349423,
               -0.0766724, -0.0350277, 0.0146524, 0.00326517, -0.00494106, -0.0722783, -0.00551361, 0.00330555, -0.0260084, 0.00703894, -0.0221277, -0.0330808, -0.0224317, 0.00605243, 0.00359237, 0.00873336, -0.0215976, -0.0229494, -0.00152354, -0.0287257, -0.0163475, 0.00416076, -0.00813006, -0.0133904, -0.0121448,
               0.0319601, -0.0131652, -0.00477661, -0.0231634, -0.0334357, -0.0199103, -0.0282045, -0.0114032, -0.0111883, -0.0177273, -0.0329701, -0.0275613, -0.00363012, -0.00937148, -0.0175145, -0.0523291, -0.04778, 0.00613566, -0.0564332, -0.00562399, 0.0181401, -0.00157663, -0.0098815, -0.0142283, -0.0773818,
               -0.0865858, -0.0313358, -0.00233294, -0.0169046, -0.00540625, -0.0195841, -0.00896843, 0.00118043, 0.00340353, -0.00131495, -0.010065, -0.0295337, -0.0033358, 0.0191508, 0.000504898, 0.00274853, -0.0250782, 0.00249848, 0.00277858, -0.0291729, -0.0115908, -0.0121688, -0.0216772, -0.00310993, -0.0141594,
               0.02193, -0.0212212, -0.0112295, -0.0310268, -0.0359859, -0.0245737, -0.0283377, 0.00020813, -0.0261074, -0.0118858, -0.0414383, -0.0244785, -0.0247728, -0.0151796, -0.0349281, -0.0492797, -0.034823, 0.011154, -0.0443085, 0.00293819, -0.00210205, -0.00732345, -0.0087877, -0.00925217, -0.0554865,
               -0.0390809, -0.0112067, 0.0176581, -0.0446039, -0.00935051, -0.00281502, -0.0248323, -0.00460336, -0.00144429, -0.00624936, 0.00267599, -0.0260726, 0.0139774, -0.0339733, 0.0122503, 0.00458592, -0.0308977, 0.00834443, -0.0127922, -0.0385851, -0.00660962, -0.0202562, -0.012024, 0.00575831, -0.0348091,
               0.0251441, -0.0131039, 0.00405596, -0.0473862, -0.014323, -0.0243648, -0.0328848, 0.0149968, -0.0151315, -0.0131371, -0.0151688, 0.00639191, -0.0232903, 0.00878594, -0.0200859, -0.0352322, -0.00832195, -0.00499982, -0.0618078, -0.021408, -0.012418, -0.0492732, -0.0107281, 0.0110383, -0.0261658,
               0.0045302, -0.0140905, -0.0514075, -0.0099887, -0.0180344, -0.0235766, -0.0264338, -0.00500764, -0.0437659, -0.000138451, -0.0583358, -0.0304842, -0.0761492, -0.0680356, -0.026135, -0.00250773, -0.0237983, -6.80302e-05, -0.00866341, 0.00319467, -0.0243093, 0.00491386, -0.00117626, -0.0161028, -0.0161203,
               0.0316199, -0.0141052, -0.00601456, -0.0223424, -0.0329953, -0.0205758, -0.0280074, -0.0127252, -0.0124753, -0.0196964, -0.0325009, -0.0284649, -0.00312033, -0.00962644, -0.0160049, -0.0521071, -0.0480716, 0.00420288, -0.0565159, -0.00606925, 0.0186035, -0.00139722, -0.00992063, -0.0151161, -0.077366,
               -0.085481, -0.034052, -0.00161736, -0.0144132, -0.0063379, -0.023726, -0.00845104, 0.00260581, 0.0040911, -5.57856e-05, -0.0124653, -0.0287634, -0.00630848, 0.0212291, -0.00170721, 0.00196549, -0.0233792, 0.00138999, 0.00361813, -0.02911, -0.0129799, -0.0126778, -0.0216954, -0.0023404, -0.0126957,
               -0.0853972, -0.0340928, -0.00401239, -0.0148624, -0.00653481, -0.0222648, -0.00867129, 0.00217879, 0.00445172, -0.00125672, -0.0120941, -0.0289813, -0.00582185, 0.021249, -0.00114279, 0.00206809, -0.0243416, 0.00100447, 0.00388872, -0.028826, -0.0128989, -0.0130535, -0.0220142, -0.00257942, -0.0128356,
               0.0264797, -0.0207377, -0.0105339, -0.0237874, -0.0274195, -0.0249014, -0.0280246, -0.0198119, -0.0169931, -0.0239466, -0.0310049, -0.0295835, -0.00742996, -0.0152262, -0.0248452, -0.0493651, -0.0446063, -0.00278355, -0.0509105, -0.00692807, 0.0131548, -0.00456783, -0.00999969, -0.0176891, -0.0681799,
               0.00603394, -0.0240998, -0.0415965, -0.0103377, -0.0191336, -0.0274876, -0.0273877, -0.00620321, -0.0331493, -0.00656124, -0.0620263, -0.0352101, -0.0723446, -0.063656, -0.0253819, -0.00375223, -0.025163, -0.0174042, -0.00822659, 0.00194531, -0.0242937, 0.00372467, -0.00126622, -0.020463, -0.0203871,
               -0.0853195, -0.039571, -0.00668371, 0.00459899, -0.000131203, -0.0682265, -0.00716429, -0.0128419, -0.00228305, 0.00238838, -0.0138781, -0.0319724, -0.0290393, 0.00112531, 0.000293489, 0.00856397, -0.021656, -0.0192823, 0.00542257, -0.0303401, -0.0172803, 0.000329475, -0.0120734, -0.0160024, -0.0040035,
               -0.0838207, -0.0276492, -0.0007873, -0.0204234, -0.00584361, -0.0164076, -0.0112176, 0.00120884, 0.00558625, -0.00415401, -0.00666117, -0.0297212, -0.00230135, 0.0187675, 0.00153686, 0.0028174, -0.0274477, 0.00244023, 0.000506551, -0.0294968, -0.0105982, -0.0134517, -0.0212544, -0.00405085, -0.0167899,
               0.0269527, -0.0208703, -0.0150358, -0.0230475, -0.0227489, -0.0236693, -0.0293143, -0.0225636, -0.0235184, -0.0269502, -0.0311265, -0.0303623, -0.010563, -0.0239633, -0.0278364, -0.0475778, -0.0416788, -0.00848594, -0.0484, -0.00560191, 0.0118153, -0.0051416, -0.00906119, -0.0203024, -0.0631811,
               -0.0552995, -0.0030793, 0.00165042, -0.00296557, -0.0098601, -0.0577762, -0.0146895, 0.0057559, -0.015686, 0.0152033, -0.036967, -0.0227742, -0.0910459, -0.00545288, -0.01184, 0.0164096, -0.0239856, -0.012205, -0.00132436, -0.0164622, -0.0341734, 0.00329749, -9.82261e-05, -0.0103723, -0.0133352,
               0.0115553, -0.00761706, 0.0107263, -0.0504196, -0.0104028, -0.00739121, -0.0331765, 0.00458558, -0.0197661, -0.0193991, -0.00851205, -0.00565335, -0.000849368, -0.00378478, 0.00210941, -0.0267625, -0.0205806, 0.00991018, -0.054913, -0.0318945, -0.0018816, -0.0436282, -0.0108771, 0.0116626, -0.0348245,
               -0.0784921, -0.0762735, -0.0312238, 0.0121532, -0.0151706, -0.0716273, -0.00111647, -0.00308138, -0.0186633, 0.00467363, -0.0285006, -0.0293785, -0.045062, 0.0236991, -0.0164937, 0.00655926, -0.0166637, -0.0040591, 0.00181056, -0.0279263, -0.0257515, -0.00375784, -0.0161194, 0.0013358, 0.000572566,
               0.0231259, -0.00595388, 0.00873844, -0.0504305, -0.00901663, -0.015811, -0.0349962, 0.00308506, -0.0128518, -0.0163389, -0.00874703, 0.00347867, -0.0168116, 0.00163438, -0.0173782, -0.0301775, -0.0142854, -0.00210712, -0.0588263, -0.0241122, -0.00568267, -0.0450202, -0.00760482, 0.010773, -0.0339714,
               -0.0846803, -0.0609781, -0.0387937, 0.00615152, 0.00385916, -0.0503174, -0.00607392, -0.0232007, -0.000752969, -0.0109004, -0.0168218, -0.0331196, -0.0126436, 0.00821023, -0.00541913, 0.00287271, -0.0225036, -0.0182396, 0.00666301, -0.0315684, -0.014156, -0.0091886, -0.0184147, -0.0111601, -0.00140608,
               0.0421997, -0.00702914, -0.0452918, -0.0190211, -0.0352609, -0.00681202, -0.0331718, 0.00740065, -0.00688854, -0.00398142, -0.0628603, -0.0442934, -0.0317138, -0.0734788, -0.0217865, -0.0162872, -0.0357216, 0.00904868, -0.0223606, 0.00527813, -0.000643222, 0.0149277, -0.00728074, -0.018244, -0.0506559,
               -0.0723902, -0.0374235, -0.00367599, -0.0170279, -0.0113384, -0.0205452, -0.0115591, 0.00450983, 0.0133532, -0.00677616, -0.0190962, -0.0262138, -0.0094077, 0.0257943, -0.00601765, -0.00228581, -0.0240713, 0.000821595, -0.00035098, -0.0292142, -0.0165439, -0.0197131, -0.0212354, 0.00030579, -0.0131709,
               -0.0402658, -0.0189572, 0.00836169, -0.00431226, -0.0295753, -0.041648, -0.018255, 0.0153971, 0.0197151, 0.0201418, -0.0639516, -0.0319905, -0.0676565, 0.00946385, -0.0117023, -0.00766547, -0.0317114, 0.00227021, -0.0103608, -0.0157026, -0.0274236, 0.00339509, -0.00358412, -0.0103141, -0.0431011
               0.00432409, -0.00277924, 0.00024038, 0.000665379, -0.00403084, 0.00247706, -0.000824715, -0.00306929, -0.000768791, -0.000105852, 8.04644e-05, 0.0026387, -0.00160431, 0.000199459, -0.00312555, 0.00385796, -0.00342499, -1.84499e-05, -2.67318e-05, -0.00223496, -0.0020126, -0.00290917, 0.00266819, 0.000483114, 0.00101645
               -0.016152, 0.00262623, -0.0182841, -0.0140482, -0.00671472, -0.0141414, -0.0139484, -0.0160965, 0.00553273, 0.00132084, -0.0144391, -0.0156478, 0.00117348, -0.0179997, 0.000513398, -0.0120687, -0.0147996, 0.00207108, -0.0188532, 0.000248923, -0.0125671, -0.0122736, -0.00275071, -0.00582063, -0.00980908,
               0.00134534, 7.25682e-05, -0.00328798, 0.00391462, 0.0355053, 0.0150673, 0.00021314, -0.00332383, 0.00782405, -0.00506251, 0.0022933, 0.0110149, -0.00367048, -0.0206657, -0.00644118, 0.0235648, 0.0209428, 0.0331395, -0.0195738, -0.00647132, 0.0131754, -0.0194277, 0.00451349, 0.00162807, -0.0133232,
               -0.00450822, 0.00421895, 0.019487, 0.0657779, -0.00177848, -0.0092195, 0.000971249, -0.00630424, -0.0016603, 0.00593865, 0.000693631, 0.0388858, 0.00467056, -0.00638416, 0.00584984, -0.0106542, -0.00776666, -0.0157668, -0.00521942, 0.0066025, 0.0536757, -0.013557, 0.0097836, -0.0147124, 0.00277573,
               0.0179067, 0.00661762, 0.00305259, -0.00312418, 0.00325853, 0.00755569, 0.000693228, 0.0192868, -0.00109908, 0.010037, -0.0012371, 0.00494859, 0.00897025, 0.0085346, 0.0119113, 0.00130264, -0.00330699, -0.0171984, 0.0151764, 0.011108, -0.00179777, 0.0211467, -0.00990936, -0.00469396, 0.00157483,
               -0.00587153, -0.00249341, -0.0138313, -0.00605805, 0.0123579, -0.00469802, -0.0123991, -0.00566876, 0.000508628, -0.0086826, -0.00269025, 0.00509221, -0.00689792, -0.0108958, -0.00847113, -0.00557735, -0.00976727, -0.00693674, -0.0125498, -0.00854242, -0.000953873, -0.0113578, -0.00685024, 0.0197705, -0.00307166,
               -0.0104064, 0.0253395, -0.00319225, 0.00535429, -0.00939262, -0.00223427, -0.00115943, -0.0124202, 0.0193818, 0.018899, -0.00503629, -0.0180824, 0.0196815, -0.0041871, 0.0197047, 0.000871274, 0.0110017, 0.00953059, -0.0180342, 0.0186593, 0.00536377, -0.0124104, 0.00114001, -3.92253e-05, -0.0132483,
               -0.000419618, 0.00366786, 0.00453855, 0.000588975, -0.00439624, -0.00113022, 0.00941016, -0.000750842, 0.000567001, 0.0076534, -0.00632894, -0.0118712, 0.00987985, 0.00654741, 0.00750571, -0.00173108, -0.00237509, -0.0098109, 0.00452904, 0.0133, 0.00189546, 0.00421168, 0.00621067, -0.00167866, -0.00155203,
               -0.00513155, -0.0121376, 0.0548747, -0.0152725, -0.0374032, -0.00677702, 0.0172749, -0.00201072, -0.0215444, -0.0121248, -0.0036189, -0.0201233, -0.0116155, 0.0393495, -0.0128376, -0.00851395, 0.00934443, -0.0226996, 0.0275841, -0.0119936, -0.0201116, -0.014593, 0.00867542, -0.0326928, -0.00612777,
               -0.0171132, 0.00221811, 0.00594742, -0.00959414, -0.00853872, -0.00960848, -0.000970104, -0.0164737, 0.00996968, -0.00070992, -0.00453008, -0.0192509, 0.00642037, -0.0211421, -0.000207607, -0.0096641, -0.0106039, 0.0251316, -0.0196323, 0.00438522, -0.0187192, -0.0173235, 0.0522027, -0.0119987, -0.016589,
               0.00538395, 0.0133739, -0.0219083, 0.00195516, -0.00864661, -0.00041496, -0.0225474, 0.0061633, 0.00236436, 0.0056917, -0.0111458, -0.0127211, 0.0111043, -0.0119362, -0.00530041, -0.00159369, 0.0127039, -0.0181923, -0.00600366, -0.00814629, -0.000224313, -0.0034085, 0.0359165, 0.00047912, 0.0269263,
               0.0281776, -0.00250871, -0.0115113, 0.0102, 0.0263724, 0.0414711, -0.00451132, 0.0252517, -0.00128414, -0.00268929, 0.0249735, 0.0315048, 0.00206476, -0.024187, -0.0040968, 0.0470773, 0.0342795, 0.0265517, -0.0232827, 0.000452147, 0.0145193, -0.0134567, -0.00421339, 0.0221729, -0.0144517,
               -0.00835233, -0.00129562, 0.0118499, -0.00268893, 0.00188255, -0.0158415, 0.0191735, -0.00687658, -0.00532819, 0.000900285, -0.0134825, -0.0102394, 0.00139982, 0.0264772, 0.000390463, -0.0169708, -0.0118612, -0.0142168, 0.02175, 0.000243384, -0.000664955, 0.0146473, 0.000288615, -0.0156111, -0.00432371,
               0.00259232, 0.0110479, -0.00019909, -0.00551286, -0.0127428, 0.0128202, 0.00247736, 0.00434767, 0.00351375, 0.015737, 0.0636425, 0.0215718, 0.0153511, -0.00229511, 0.015659, 0.0118749, 0.00699451, 0.0215603, -0.00287318, 0.0161558, -0.011143, -0.00808912, 0.00765522, 0.00263053, 0.0213933,
               -0.0165229, 0.00866925, -0.00213286, 0.00567803, -0.0392639, -0.0135325, -0.00504682, -0.0162111, -0.015705, 0.0146242, -0.00345996, -0.0118395, 0.0136982, 0.0203129, 0.0111024, -0.0145384, -0.00360997, -0.00385209, 0.00416458, 0.00716829, 0.0225289, -0.0126637, 0.00195994, 0.000948653, 0.0618788,
               -0.00206544, 0.0330831, 0.0101325, 0.00259843, 0.022837, -0.00321876, -0.00163138, 0.00126208, 0.0259061, 0.0315491, 0.00293706, 0.0241752, 0.0309465, -0.00926509, 0.0330934, -0.00246205, -0.009681, -0.0161294, -0.00453502, 0.0345033, -0.00687703, 0.0132411, 0.00907548, 0.00290704, -0.0100845,
               -0.00489361, 0.0162183, -0.00211272, -0.0105627, 0.0118998, -0.00721458, -0.00651203, -0.00488007, 0.024148, 0.0134807, -0.0111246, -0.00220458, 0.0128801, -0.00345946, 0.0140248, -0.00623064, -0.0128641, -0.0142281, -0.00481403, 0.0140319, -0.00979006, -0.000543992, -0.00509807, 0.00939848, -0.00366426,
               -0.00133165, 0.0113373, -0.0070723, -0.0121832, -0.00427478, -0.00206581, -0.000988776, 0.000563683, 0.00782084, 0.0148648, -0.000696577, -0.0102793, 0.0156346, 0.00288991, 0.01209, -0.00133874, -0.00111622, -0.00346799, 0.00771564, 0.0136443, -0.0162603, 0.0127041, 0.00522322, 0.000630918, 0.00162234,
               -0.00553547, 0.0136313, -0.0183847, -0.00291346, 0.0193638, -0.00260204, -0.0085254, -0.00637793, 0.0251297, 0.0184499, -0.00465014, 0.00897435, 0.0132271, -0.00778301, 0.0226757, -0.00155981, -0.010937, 0.0187894, -0.00999118, 0.0184677, -0.00900983, 0.000978452, -0.0226514, 0.0316748, 0.00251072,
               -0.0103468, 0.0129165, -0.00364744, 0.00250829, -0.00897316, -0.0140967, -0.0104243, -0.0109107, 0.00969677, 0.0113559, -0.01299, -0.0108347, 0.0103481, -0.00756857, 0.00968533, -0.0131984, -0.0132683, -0.0126998, -0.00793759, 0.007713, 0.00188473, -0.00585017, -0.000516845, -0.00368938, 0.00395781,
               -0.0148049, 0.0192937, -0.00790041, -0.00421377, 0.006016, -0.0145627, -0.0072301, -0.0141767, 0.0233531, 0.0131359, -0.00783375, 0.00111276, 0.0120298, 0.000200157, 0.0145985, -0.0128979, -0.0143347, -0.00218403, -0.00517291, 0.0127332, -0.0040146, -0.00498703, -0.00542113, 0.021648, -0.000542758,
               -0.0072424, 0.000668791, -0.00769014, -0.0116901, 0.0108853, -0.00911556, -0.00581521, -0.00533436, 0.0100175, -0.00502826, -0.0012878, -0.000299601, -0.0048944, -0.00088213, -0.00531433, -0.00868028, -0.0141333, -0.00369005, -0.00284296, -0.00699563, -0.00340957, -0.0043803, -0.00806576, 0.021872, 0.00656476,
               -0.00492977, 0.00998276, 0.0132387, 0.00794065, 0.0136279, -0.00794188, 0.0274368, -0.00463352, 0.00647542, 0.0127033, -0.000647362, 0.0107233, 0.0127482, 0.00610918, 0.012789, -0.00660227, -0.0148844, 0.00902189, 0.0101028, 0.0135141, 0.0069112, -0.00348299, 0.00846946, -0.00189632, 0.00841311,
               -0.0161173, 0.00419035, 0.0115186, 0.00516262, 0.0107361, -0.02487, 0.0354552, -0.0155669, 0.00165824, 0.00829163, -0.0117838, 0.00526646, 0.00877127, 0.0156222, 0.00824909, -0.0223243, -0.027783, 0.0045943, 0.0111191, 0.00863822, 0.0121518, -0.00782563, 0.0038571, -0.000892075, 0.0115387,
               -0.00256216, -0.00132529, -0.017185, 0.00505468, -0.010198, -0.00588276, -0.0155612, -0.000858745, -0.00134075, -0.0011953, 0.00253914, 0.00396303, -0.00305464, -0.019363, 0.000269891, -0.00702206, 0.00236544, -0.0175922, -0.00974009, 0.00219059, 0.00661563, 0.0141499, -0.0104602, 0.00659584, -0.00693546,
               0.0365426, -0.00557685, 0.00201512, 0.00659373, 0.0055585, 0.0170311, 0.000297167, 0.0401838, -0.0111238, -0.00571675, -0.00194912, 0.00870723, -0.00318797, 0.0094972, -0.00637035, 0.0104029, 0.0122761, -0.00790367, 0.0191495, -0.00546834, 0.0106319, 0.0325033, 0.010527, -0.0127465, -1.93722e-05
               -0.0360225, -0.0304961, -0.0271821, -0.0451252, -0.0387223, -0.0268425, -0.0413037, -0.0384417, -0.0251549, -0.0344087, -0.024127, -0.0316602, -0.0206687, -0.0316317, -0.0226664, -0.0329255, -0.0417685, -0.0144357, -0.0608851, -0.0483574, -0.0333501, -0.0163712, 0.0103081, -0.0125347, -0.0521149
               -0.0533383, -0.00516181, 0.00419237, -0.0449083, -0.00620113, 0.0143724, -0.0285758, -0.00623428, 0.0111532, -0.00970152, -0.0309795, -0.027755, -0.00645542, 0.013784, -0.00759837, 0.00607461, -0.0317459, 0.00137845, -0.00153575, -0.024165, -0.0134853, -0.0251159, -0.0115261, -0.000942658, -0.0408895,
               0.0111215, -0.032972, -0.0283223, -0.0206649, -0.0229078, -0.0486884, -0.0195047, -0.02343, -0.0364246, -0.0346681, -0.014357, -0.0032494, -0.0151827, -0.0268653, -0.0433989, -0.0402239, -0.00780143, -0.0181856, -0.0327382, 0.00674887, -0.0309689, 0.0054919, 0.02095, -0.014482, -0.020604,
               0.0114948, -0.0248532, -0.0515911, -0.0359228, -0.0011359, -0.0301115, -0.0210836, -0.0730821, -0.0512211, -0.0116537, 0.00816201, 0.0111604, -0.00974888, -0.0117011, -0.0381422, -0.0344865, -0.00244334, 0.000989914, -0.046032, -0.0249321, -0.0105338, -0.0328427, 0.00785775, 0.01839, -0.0113427,
               -0.00542465, -0.0347219, -0.111775, -0.00817844, -0.0334707, -0.0283752, -0.0241301, -0.00744433, -0.00501648, -0.013805, -0.0420525, -0.0285941, -0.0116354, -0.0502236, -0.0188431, -0.00104082, -0.0233577, -0.00350963, -0.01512, -0.0147821, -0.0264846, -0.00407643, -0.00695818, -0.0124604, -0.00831769,
               0.0170258, -0.0738646, -0.0162091, -0.0255472, -0.058606, -0.0252605, -0.0179735, 0.0196689, -0.0186648, 0.00292719, -0.0655155, -0.0166091, -0.00245959, 0.0449492, -0.0408203, -0.0418963, -0.017957, -0.0238222, -0.0237467, -0.0126805, -0.0268446, -0.0160881, 0.00284992, 0.00525444, -0.0463387,
               -0.0740824, -0.0154532, 0.00775755, -0.0310424, -0.00918102, 0.0110179, -0.018273, -0.00163995, 0.00813664, 0.00139455, -0.0420727, -0.0287722, -0.0200788, 0.0149163, -0.0061583, 0.0104179, -0.0245062, 0.00138564, 0.0110905, -0.0212349, -0.0240854, -0.0127285, -0.0123108, 0.0010548, -0.0285802,
               0.0243018, -0.0251708, -0.0089745, -0.0403837, -0.0168875, -0.0365727, -0.0266692, -0.0170604, -0.0380495, -0.00453966, -0.0101298, 0.0127556, -0.0170062, -0.00175049, -0.0275471, -0.0327416, -0.000713212, 0.00519116, -0.0599433, -0.0269794, -0.0176012, -0.0453507, -0.00688193, 0.0244994, -0.0146264,
               -0.0485327, 5.70816e-05, 0.00579071, -0.0473652, -0.00515962, 0.0151729, -0.0308819, -0.00995686, 0.00953253, -0.0111836, -0.0292899, -0.0263876, -0.00785662, 0.0124193, -0.0113797, 0.00524655, -0.0335185, 0.00122772, -0.00229123, -0.0238049, -0.012719, -0.0259462, -0.00943438, -0.00164977, -0.0435675,
               0.00694543, -0.0340602, -0.0161185, -0.0241624, -0.0286645, -0.0477078, -0.0178327, -0.0184886, -0.0365429, -0.0303789, -0.0182799, -0.0110888, -0.0130599, -0.0119464, -0.0358341, -0.0474343, -0.0168043, -0.0244779, -0.0399426, 5.76652e-05, -0.0238012, 0.00404871, 0.0163385, -0.014007, -0.0322049,
               0.0163194, -0.0294304, -0.0260779, -0.0246433, -0.0246281, -0.0481973, -0.0205379, -0.0215954, -0.0366468, -0.0293529, -0.0162015, -0.00059471, -0.0192412, -0.0327942, -0.0419422, -0.0391238, -0.00369279, -0.0182262, -0.0349747, 0.00723424, -0.0327126, 0.00736392, 0.0224087, -0.0131421, -0.0189174,
               -0.0481261, -0.012736, -0.0271241, -0.0118211, -0.0197614, -0.00354849, -0.0233387, -0.00273267, 0.00327165, 0.011892, -0.0495676, -0.0154365, -0.0929902, -0.0137242, -0.0096254, 0.015526, -0.0275513, 0.00839741, 0.0045245, -0.0189806, -0.0506337, -0.00528008, 0.00160239, 0.00301284, -0.00217487,
               -0.00379442, -0.0331519, -0.0878405, -0.0173036, -0.0417923, -0.00254618, -0.0288809, 0.000982146, 0.0141388, 0.00996245, -0.0714342, -0.0239926, -0.0541198, -0.0149362, -0.0370543, -0.00191299, -0.0207017, -0.00315518, -0.00112559, -0.00689423, -0.0414948, -0.00347868, 0.00644412, -0.00528882, -0.0225004,
               0.0133603, -0.0314754, -0.0278382, -0.0227238, -0.0236207, -0.0472297, -0.0187848, -0.0218825, -0.0409621, -0.0344886, -0.016397, 0.00180989, -0.0186558, -0.0313983, -0.0427052, -0.0382496, -0.0048975, -0.0171559, -0.0324866, 0.00710663, -0.034573, 0.005504, 0.0221541, -0.011713, -0.0168713,
               0.0305362, 0.00322183, 0.00733443, -0.0558731, 0.000549071, -0.0293377, -0.0342945, -0.0437628, -0.0113924, -0.0184123, 0.0155169, 0.00107742, -0.00415067, -0.0512914, -0.017437, -0.027008, -0.0130379, 0.00405394, -0.0611965, -0.0305383, -0.00189691, -0.0356547, 0.00153955, 0.0206414, -0.0290984,
               0.0167278, -0.0283269, -0.0248056, -0.0279161, -0.0261954, -0.0493573, -0.0205275, -0.0202749, -0.0368575, -0.0215777, -0.0176793, -0.0019776, -0.0213964, -0.0298337, -0.0413401, -0.0394737, -0.00260877, -0.020354, -0.0357784, 0.00721155, -0.0316012, 0.00887104, 0.0230042, -0.0135339, -0.0205897,
               -0.0778958, -0.0253918, 0.00620124, -0.0227037, -0.010025, 0.00488463, -0.0131131, 8.83874e-05, 0.00926064, 0.0015881, -0.0489761, -0.0284836, -0.0206514, 0.0181577, -0.00625532, 0.0104067, -0.0216712, -2.3103e-05, 0.0143107, -0.0211401, -0.0276449, -0.00990985, -0.0139415, 0.00188481, -0.0227614,
               -0.0892581, -0.0202698, 0.00317214, -0.0199418, 4.54472e-05, 0.000143186, -0.0133167, -0.0267235, 0.0164138, -0.0161514, -0.0306516, -0.0329471, -0.0112344, -0.00657783, 0.00591932, 0.0164328, -0.0318971, 0.00827856, 0.0131172, -0.0230614, -0.0217518, 0.00167626, -0.00917691, -0.0106584, -0.022173,
               -0.0472228, -0.0596327, 0.00419062, -0.000137803, -0.026675, -0.0387465, -0.0061695, 0.0177671, -0.0439108, 0.012363, -0.0527025, -0.0138884, -0.0522496, -0.00100974, 0.0174318, 0.0139849, -0.00940017, -0.018488, 0.00246072, -0.0277541, -0.0427063, -0.0246927, -0.0189549, 0.0215172, -0.0024176,
               0.0202877, 0.00317948, 0.00508454, -0.059726, 0.0032266, -0.00710932, -0.0380118, -0.0316209, -0.00860137, -0.0194284, 0.0106434, -0.00667424, -0.00835943, -0.0155116, -0.0179459, -0.0201858, -0.0212953, 0.00595771, -0.055976, -0.0269514, 0.00534713, -0.0382456, 0.000630072, 0.0125442, -0.0428449,
               0.0157435, -0.0289348, -0.026609, -0.0295456, -0.0271176, -0.049647, -0.0180015, -0.0205566, -0.0387324, -0.0194562, -0.0182708, 0.000114434, -0.021783, -0.0267366, -0.0444998, -0.0394144, -0.0018537, -0.018417, -0.0354288, 0.00567854, -0.0323522, 0.00891123, 0.0236501, -0.0122665, -0.019389,
               -0.00210117, -0.0379663, -0.102285, -0.0107686, -0.0385216, -0.0245463, -0.023345, 0.00523743, 0.00711533, -0.0102729, -0.0470864, -0.0320696, 0.00247392, -0.0679016, -0.010954, -0.004053, -0.020249, 0.0121503, -0.0165614, -0.0193272, -0.0249893, -0.00528432, -0.0127383, -0.00493556, -0.0132633,
               -0.00475951, 0.0131992, 0.0220715, -0.0600603, 0.00130517, -0.00290109, -0.0394078, 0.0150469, 0.000333577, -0.00917321, -0.00516343, -0.0177113, 0.000278932, 0.00813786, -0.0314392, -0.0107506, -0.0324354, -0.00589067, -0.0314469, -0.0251811, 0.00405888, -0.0235368, 0.00418185, -0.0157463, -0.0525021,
               -0.0195789, -0.0385518, -0.0576217, 0.000278493, -0.00250654, -0.0290759, -0.0109244, -0.0410393, -0.0933915, -0.0640844, 0.00801299, 0.0113301, -0.0139719, -0.0289492, -0.0314469, -0.0209483, -0.0198291, -0.00754419, -0.0152223, -0.00586144, -0.0288381, -0.0190089, 0.00655797, 0.00581854, 0.0016981,
               0.0224495, -0.0165615, 0.0163325, -0.0111472, -0.0510393, -0.0148303, -0.0231299, 0.0193006, 0.0162009, -0.00546096, -0.0624737, -0.0369454, -0.0131876, -0.0192092, 0.00153938, -0.0337448, -0.0488425, -0.015582, -0.0358847, -0.00565875, -0.00679137, 0.0156372, -0.000510806, -0.011438, -0.0794343,
               0.0331642, -0.0110739, -0.0281579, -0.0166851, -0.0347474, -0.0220857, -0.0366267, -0.026039, -0.0123058, -0.0501218, -0.0150949, -0.00424507, -0.0492629, -0.105196, -0.000412688, -0.0217571, -0.0141817, -0.00435633, -0.034699, -0.00405407, -0.0404855, -0.00813714, -0.000691337, 0.00572696, -0.0123661
               -0.000556507, 0.00209756, 0.00377763, 0.000923051, 0.0017956, 0.00522695, 0.00429406, 0.000819599, 0.00197429, 0.00104404, -0.00258134, -0.00126198, -0.00229566, -0.00391041, 0.00088171, -0.00429077, -0.0029957, -0.000941573, -0.00125258, -2.58711e-05, 6.18353e-05, 0.000820368, 0.00197857, 0.00126679, 0.000602113
               -0.0186258, -0.0387702, -0.0214581, -0.0299263, -0.0312309, -0.0310335, -0.0250132, -0.032528, -0.0255172, -0.0367433, -0.0366214, -0.0309773, -0.0261494, -0.0255476, -0.0224144, -0.0278097, -0.0334381, -0.0264495, -0.0251921, -0.0343252, -0.030762, -0.035184, -0.0298458, -0.0263833, -0.0233319,
               0.00240471, -0.00311328, 0.00430078, -0.00589865, 0.00322307, 0.00144108, -0.00217146, 0.00768162, 0.00288138, 0.0115535, -0.00246705, 0.0151179, 0.00491887, 0.00111555, 0.00155138, 0.0171783, -0.00626007, 0.000985983, 0.00254892, 0.0023035, 0.0150507, 0.0204759, 0.00194159, 0.00151163, 0.0116861,
               0.00421971, 0.0219886, -0.0118306, 0.0187344, -0.00947179, -0.00591377, -0.00430641, -0.00498696, 0.00176139, 0.0208412, -0.00353506, -0.018736, 0.00224382, -0.0117372, -0.00110738, -0.0243054, 0.0128463, -0.0113329, 0.00300186, 0.0111358, -0.0185526, -0.00488433, 0.00938208, -0.0116208, -0.0097079,
               0.0019523, 0.0105152, -0.00361497, -0.00780086, 0.00430368, 0.00386346, -0.00576849, 0.0153148, 0.00528842, 0.0127665, -0.00298061, 0.00805132, 0.00533319, -0.00371287, 0.00100234, 0.00363288, -0.00675234, -0.00146103, 0.00487891, -0.000997458, 0.00768561, 0.00658977, -0.00366707, -0.00293697, -0.000492717,
               -0.0135159, -0.0142648, -0.023954, -0.0237503, -0.00346535, -0.0297898, -0.0191183, -0.00801369, -0.0130695, -0.0201432, -0.0249759, -0.011585, -0.0133543, -0.0322253, -0.0121324, -0.0170917, -0.0146122, -0.0320244, -0.01347, -0.0110425, -0.0113812, -0.0134637, -0.0103779, -0.0320895, -0.00648218,
               0.071363, 0.00575172, -0.022792, 0.0259153, 0.0210952, -0.0130429, -0.0124353, 0.0119666, 0.0319524, 0.00899313, -0.015695, 0.0220225, 0.0334088, -0.0127413, 0.0112828, 0.00850449, -0.000280831, -0.0112683, 0.0335662, 0.00585813, 0.0201245, 0.0241888, 0.0207095, -0.0139431, 0.0461711,
               0.00673229, 0.00903505, 0.00693279, 0.0162434, -0.00877574, 0.00640108, 0.00685057, 0.0120318, 0.00535279, 0.0180244, 0.0146657, 0.00382234, 0.00777352, 0.0105157, 0.00776164, 0.00721512, 0.0187515, 0.00895477, 0.00583723, 0.00713399, 0.00422863, 0.00447593, 0.00338047, 0.010058, -0.00435233,
               -0.0181028, -0.0260785, -0.0464128, -0.031947, -0.0271064, -0.0416568, -0.0298367, -0.034592, -0.0356902, -0.0300046, -0.032457, -0.0366681, -0.0324548, -0.0426375, -0.0340177, -0.043095, -0.0255462, -0.0430348, -0.03592, -0.0303009, -0.0365072, -0.0319399, -0.0241472, -0.0429512, -0.0148515,
               -0.0114064, -0.0172211, 0.0350221, 0.00493851, 0.00655142, -0.00323333, 0.0608637, -0.00154887, -0.00263598, 0.0133478, 0.0284226, 0.000439942, -0.00630307, -0.000630292, 0.0539388, 0.0113602, 0.00292712, -0.000639392, -0.00331911, -0.00447625, -2.12433e-05, -0.0103758, -0.00598453, -0.000366297, -0.0218145,
               0.00600154, 0.0143189, -0.00497292, -0.00225993, -0.0131665, -0.00685966, -0.00772651, 0.0107588, 0.000437191, 0.0084459, -0.00449076, -0.0128978, -0.000436765, -0.00853546, -0.00361046, -0.0139006, 0.0288679, -0.00877337, 0.000163859, -0.0118933, -0.0125632, -0.00934838, -0.0104561, -0.00922739, -0.0245724,
               0.00853646, -0.0135266, 0.0111095, 0.00224335, 0.0441422, 0.000104338, 0.00418859, 0.0446205, 0.0480416, -0.000839886, 0.000797306, 0.0179463, 0.0466744, 0.00406578, 0.0169536, 0.0254004, 0.000475205, 0.00383709, 0.0462473, 0.030192, 0.0179703, 0.0242983, 0.0296885, 0.00604512, 0.0239919,
               -0.000648999, 0.010938, 0.00119005, -0.00028693, -0.00974939, 0.00400987, 0.00950613, 0.00141052, -0.00182368, 0.0154883, 0.0166565, -0.00272438, -0.00117394, -0.00293623, 0.000205628, -0.00178022, 0.000788159, -0.000507266, -0.00158486, -0.00412125, -0.00183252, -0.00435731, -0.00821231, -0.00307391, -0.00883421,
               -0.00404323, 0.00260982, -0.0109703, 0.027815, 0.0157126, -0.00192857, -0.0108778, -0.0188052, -0.0106924, -0.015614, -0.00267624, 0.00122989, -0.0114156, -0.00154055, -0.00508119, -0.00242886, 0.0414718, -0.00490565, -0.0103273, 0.0401968, -0.00131379, 0.0265643, 0.0440142, -0.00252385, 0.0169211,
               -0.00289511, 0.0253719, 0.00155965, -0.0284569, -0.00480866, -0.000663472, -0.00489019, 0.00173494, -0.0233582, -0.0091447, -0.0106062, 0.0480045, -0.0193881, -0.00189488, -0.0188111, 0.038382, -0.0159608, -0.000107353, -0.0250755, -0.02801, 0.0495317, 0.0277784, -0.0257071, -0.00317912, 0.00630082,
               0.00208121, 0.039638, 0.0053795, -0.0125404, 0.0206912, 0.0263658, -0.0179664, 0.010172, 0.0087283, -0.00839371, 0.00166208, -0.0075112, 0.00831553, 0.00859124, 0.00853727, -0.00547744, -0.0124296, 0.00992478, 0.00954644, 0.0149825, -0.00779615, 0.0117483, 0.0063739, 0.00996178, -0.00819545,
               -0.0137092, -0.00217922, 0.0264566, -0.00231942, -0.0182925, 0.0319642, 0.020572, 0.000425636, -0.00522834, 0.0134132, 0.030274, -0.00170774, -0.00138224, 0.0312282, -0.00871319, 0.00590628, -0.00580247, 0.032125, -0.00501716, -0.01003, -0.00136542, -0.00382629, -0.0117617, 0.0320428, -0.0124362,
               0.00839346, 0.00648022, 0.00387037, 0.00891464, 0.00730133, 0.00378597, -0.000315742, 0.00183495, 0.00471999, -0.000495743, 0.00645355, -0.000185189, 0.00351636, 0.00303454, 0.0121524, 0.00216958, 0.0110241, 0.00381404, 0.00519808, 0.0104178, -0.000485719, 0.00189689, 0.00815682, 0.00263751, 0.006232,
               -0.00813003, 0.000824027, 0.0168212, -0.00452779, 0.00741902, 0.0132363, 0.000853338, 0.000281386, 0.00453129, -0.00503928, 0.00464289, 0.00524473, -0.00535208, 0.015757, 0.0042193, 0.00945633, -0.00853968, 0.015836, 0.00453773, 0.00617459, 0.00542958, -0.0089993, 2.57004e-06, 0.0164123, -0.00357678,
               -0.0125218, 0.0185429, 0.0292684, 0.0144522, -0.0184235, 0.0423449, -0.00205711, -0.00563289, -0.00370044, 0.0149571, 0.0195234, 0.00485253, -0.00458059, 0.0497121, -0.0154433, 0.0111807, 0.0105207, 0.048158, -0.00384919, 0.00112989, 0.00568898, -0.00359344, -0.00681603, 0.0487102, -0.0128011,
               -0.00892099, -0.00945928, 0.000345779, -0.0152342, -0.0117908, 0.000397099, -0.0105246, -0.0135304, -0.0118808, -0.017304, -0.0123609, 0.000798468, -0.0131588, 0.00595577, -0.0100682, -0.00125258, -0.017967, 0.0056277, -0.0113861, -0.0159531, 0.00117571, -0.0102555, -0.0168263, 0.00576838, -0.00830152,
               0.00436139, 0.0124872, 0.0188799, 0.0133685, 0.00222894, 0.0148086, 0.0177547, 0.00858246, 0.00817002, 0.0117797, 0.0182056, 0.0127721, 0.00671743, 0.0155745, 0.0166815, 0.0119264, 0.016354, 0.0159646, 0.00849159, 0.0103364, 0.0134116, 0.00799805, 0.00775269, 0.0156309, 0.00210275,
               0.00306619, -0.00286792, 0.00400963, 0.0128844, -0.00408033, -0.00348329, 0.00823596, 0.0082807, 0.00480229, 0.0101163, 0.0038011, 0.00386536, 0.00571398, 0.00238045, 0.00272479, 0.00379982, 0.0094157, 0.0016962, 0.00437813, 0.00729369, 0.00439056, 0.0016362, 0.0031975, 0.00263739, -0.0104851,
               -0.00759841, -0.0186521, -0.0221009, -0.00600668, -0.0167697, -0.025307, -0.00569091, -0.0114232, -0.0113634, -0.00576982, -0.0172212, -0.00935782, -0.0102306, -0.0232929, -0.0108829, -0.0114353, -0.0113316, -0.0239837, -0.0117414, -0.0144613, -0.0090171, -0.0116051, -0.0118834, -0.0226636, -0.011269,
               0.00645694, 0.00487415, 0.011174, 0.016657, 0.0038241, 0.0140388, 0.00762603, 0.00450423, 0.0104717, 0.00144608, 0.00751801, 0.00647456, 0.0121518, 0.0156758, 0.00805051, 0.00724993, 0.00670622, 0.0159033, 0.0112319, 0.00807131, 0.00678083, 0.00630936, 0.00490592, 0.0154206, 0.00442406,
               0.00689177, 0.0222003, 0.000134552, 0.00447324, -0.00618545, 0.000508295, 0.0168985, 0.0173943, 0.00885738, 0.0251929, 0.016767, 0.00110903, 0.00870994, -0.0104595, 0.0129741, -0.00264118, 0.0197374, -0.00704892, 0.00948192, 0.00529292, 0.00216022, -0.00500801, 0.00183836, -0.0114662, -0.0102568
               -0.0360225, -0.030496, -0.0271821, -0.0451252, -0.0387223, -0.0268425, -0.0413037, -0.0384417, -0.025155, -0.0344087, -0.0241271, -0.0316602, -0.0206687, -0.0316317, -0.0226664, -0.0329255, -0.0417685, -0.0144357, -0.060885, -0.0483574, -0.0333501, -0.0163712, 0.0103081, -0.0125347, -0.0521149
               -0.0558286, -0.000374727, -0.0151485, -0.0162269, -0.0137862, -0.0899962, -0.0274952, -0.0122045, -0.00275331, -0.0252707, -0.0206168, -0.0282038, -0.000125947, -0.0152852, -0.0131258, 0.0120946, -0.0388456, 0.00566943, -0.0104446, -0.035536, -0.0285098, -0.0159655, -0.0187891, -0.0100867, 0.00240129,
               0.0194516, -0.00519274, -0.0502766, -0.0394163, -0.0177526, -0.0232016, -0.0449841, -0.0253022, 0.00229413, -0.0429667, 0.0180997, -0.0149113, -0.0211457, -0.0656944, -0.0643301, -0.0102954, -0.0340538, -0.00700122, -0.0551411, -0.037117, -0.0302834, -0.00864603, 0.0151517, -0.00468362, -0.0127966,
               0.0278061, -0.0175822, -0.00350178, -0.0182967, -0.016164, -0.00542609, -0.0300296, 0.00962923, -0.0902959, -0.0274201, -0.0275257, -0.0202124, -0.00394792, -0.0303438, -0.0189198, -0.0529688, -0.0167415, -0.0228235, -0.0769237, -0.0347115, -0.0182035, -0.00428072, 0.0187146, -0.0119743, -0.0176526,
               -0.0175766, 0.0017476, -0.0376657, -0.0165577, -0.0186741, -0.0554183, -0.0325479, 0.00484836, -0.0350205, -0.0226556, -0.00595377, -0.00375159, -0.053799, 0.0249709, -0.00352585, -0.0147488, -0.0367953, -7.68719e-05, -0.0540383, -0.0355558, -0.0325212, -0.037054, -0.0103805, -0.010407, 0.00146565,
               -0.0567834, -0.00977039, 0.00354462, -0.0179815, -0.0172122, -0.043636, -0.0273156, 0.0228879, -0.0276382, 0.0170898, -0.0731069, -0.022958, -0.0353796, -0.0197276, -0.0391767, 0.0220957, -0.0304986, -0.00878355, 0.0023976, -0.0263224, -0.0464288, 0.000275994, 0.00439321, -0.00714359, -0.00162787,
               0.0373162, -0.0106491, -0.0128313, -0.0332243, -0.00754696, -0.0173734, -0.0439916, -0.000542489, -0.0215345, -0.0250528, -0.00875826, -0.0182708, -0.018449, -0.0249587, -0.0539798, -0.0543726, -0.0144827, -0.015789, -0.0940991, -0.0405812, -0.0197752, -0.00561624, 0.0295236, -0.0110673, -0.0162955,
               -0.00614341, -0.00303533, 0.00219537, -0.0275558, -0.0134631, -0.00572273, -0.0234923, 0.00847477, -0.117341, -0.017714, -0.0105145, -0.0131343, 0.00786356, -0.00609533, 0.0150298, -0.0492628, -0.0278728, 0.0030241, -0.0428294, -0.0378793, -0.00440804, -0.0291373, -0.00863242, 0.00502614, -0.0151092,
               -0.0299353, -0.00974168, -0.0116559, -0.034889, -0.0172848, -0.0319137, -0.0273716, 0.00389382, -0.023453, -0.0317641, -0.0601506, -0.0236964, 0.0209893, -0.0203554, -0.0285275, -0.0055908, -0.0328498, 0.00325467, -0.0173637, -0.0343058, -0.0346342, -0.0270278, -0.0137365, -0.00233621, -0.00672009,
               -0.0428433, -0.00719038, -0.0106307, -0.0249667, -0.0161678, -0.055905, -0.0296274, 0.0125717, -0.0171094, -0.0179107, -0.0671856, -0.0226422, 0.00403073, 0.0091303, -0.0246193, -0.000559101, -0.0304015, -0.0084613, -0.0190929, -0.0301127, -0.0357302, -0.0239212, -0.013101, -0.0106121, -0.00244035,
               -0.00350717, -0.018198, -0.0475235, -0.0335217, -0.0152478, -0.0199464, -0.02512, -0.0108011, -0.0517677, -0.0376436, 0.00573414, -0.0183276, 0.0219453, 0.000732198, -0.0046533, -0.0376593, -0.0342961, -0.0037043, -0.0506381, -0.0477849, -0.00476856, -0.0379305, -0.00929847, 0.0052134, -0.00970999,
               0.0158435, 0.00190757, -0.00684826, -0.0354333, -0.0063422, -0.00151759, -0.0295226, 0.0031053, -0.0727371, -0.0215891, -0.00191708, -0.0117072, -0.00992427, 0.000374668, -0.0219332, -0.055502, -0.0285357, -0.00789741, -0.0681267, -0.0409331, -0.00423959, -0.0261575, 0.00806376, 0.00270477, -0.0195893,
               -0.0241971, -0.0304079, 0.00357069, -0.0154906, -0.0287222, -0.049745, -0.026802, 0.0151457, -0.0230757, 0.00494003, -0.0473581, -0.0348668, -0.0308253, -0.0937897, -0.00782954, -0.0136084, -0.0261744, -0.00445317, -0.0303201, -0.0437448, -0.0478805, -0.000516209, -0.000252394, -0.00867328, -0.00241773,
               -0.0446952, -0.00857501, -0.0132561, -0.0277604, -0.0148091, -0.0566088, -0.0286525, 0.00860839, -0.00984937, -0.0179452, -0.063558, -0.0228249, 0.00881163, 0.00374128, -0.0235748, -0.00368811, -0.0302554, 0.00806009, -0.0185759, -0.0323093, -0.0343812, -0.0251981, -0.0144435, -0.0102381, -0.00134865,
               0.0429716, -0.010243, 0.00049457, -0.0168233, -0.00797022, -0.0222054, -0.0399719, 0.00348833, -0.0275116, -0.0243203, -0.0202653, -0.0233125, -0.0223161, -0.0288994, -0.0259232, -0.0582769, -0.0107928, -0.0158623, -0.107728, -0.0368877, -0.0219903, -0.00281263, 0.0260601, -0.0150749, -0.0174448,
               -0.0295239, -0.00724863, -0.00713569, -0.0192761, -0.0169054, -0.0361613, -0.0232159, 0.00916929, -0.0952859, -0.0131864, -0.0397444, -0.0125391, -0.00560368, 0.0120218, -0.0360923, -0.00353139, -0.0372437, -0.0051978, -0.0157493, -0.029981, -0.0281048, -0.0173113, -0.00770661, -0.00712202, -0.00782755,
               -0.0173722, -0.0284917, 0.0148784, -0.0118874, -0.0248723, -0.0440798, -0.0259032, 0.0179466, -0.036982, 0.000287624, -0.0554587, -0.0328985, -0.0299147, -0.0870394, -0.00747198, -0.0230685, -0.0245904, -0.00749807, -0.0417048, -0.0446969, -0.0477122, -0.000875895, 0.00153866, -0.0100878, -0.00204845,
               -0.013456, 0.00943563, -0.0384571, -0.0179132, -0.0143901, -0.00833597, -0.0355556, -0.0151589, -0.0204192, -0.0663375, 0.00890901, -0.000413893, -0.0704101, 0.0142035, -0.00391153, -0.0105074, -0.0483616, 0.000243457, -0.0479545, -0.0255286, -0.0317242, -0.0402964, -0.0119778, -0.00421031, -0.00728408,
               0.0427944, -0.0103454, 0.000917534, -0.0211905, -0.00825852, -0.0231698, -0.0399554, 0.00350559, -0.0271847, -0.0214686, -0.0194984, -0.0235366, -0.0177009, -0.0332417, -0.0300146, -0.0572042, -0.0100357, -0.0174481, -0.104266, -0.0376148, -0.022102, -0.00210961, 0.0272301, -0.0150623, -0.0167689,
               -0.0421348, -0.00680617, -0.0116317, -0.0250172, -0.0161087, -0.0589864, -0.0300362, 0.0132414, -0.0147914, -0.0172461, -0.0655318, -0.0220909, 0.0029108, 0.0135671, -0.0262095, -0.000877355, -0.0309936, -0.00832481, -0.0203702, -0.030273, -0.0352652, -0.0239427, -0.0126127, -0.0121915, -0.00272822,
               -0.0250411, -0.00446947, -0.0261602, -0.0251336, -0.0177962, -0.0250243, -0.0354888, 0.0120821, -0.0142067, -0.00116501, -0.0564993, -0.00557071, -0.0754647, 0.0262736, -0.0382198, 0.000517864, -0.0353317, -0.00984149, -0.0293774, -0.0268135, -0.0496268, -0.0264832, 0.00270318, -0.00646845, -0.00698536,
               -0.0227175, -0.0310706, 0.004041, -0.0153781, -0.0285077, -0.0482762, -0.0264532, 0.0153629, -0.0243856, 0.00375044, -0.047775, -0.035236, -0.0282808, -0.0961082, -0.0061807, -0.0136778, -0.0260078, -0.00455519, -0.0312175, -0.0439597, -0.0474952, -0.000600775, -0.000458598, -0.008809, -0.00282525,
               -0.0360036, -0.0306413, -0.0164496, -0.0175086, -0.0292115, -0.050127, -0.0279526, 0.00848981, -0.00227632, 0.0019678, -0.0445786, -0.0289819, -0.0479906, -0.0740159, -0.0259605, -0.0115572, -0.0316521, 0.0135469, -0.0236949, -0.0403662, -0.0523153, -0.00190173, 0.000687007, -0.00768968, 0.000246659,
               -0.0475797, -0.00676957, -0.0212181, -0.018772, -0.0178401, -0.0408572, -0.0322476, 0.0156567, -0.0108315, 0.00230719, -0.0519535, -0.0109047, -0.0749775, 0.0195756, -0.0201242, 0.00810153, -0.0361354, -0.000843938, -0.0158593, -0.0267365, -0.047176, -0.0234446, -0.00567641, -0.00158442, -0.00200897,
               0.0436646, -0.0125692, -0.00013741, -0.0171529, -0.00855635, -0.0213102, -0.0396529, 0.00552364, -0.0297608, -0.0221242, -0.0266209, -0.023077, -0.0215758, -0.0241731, -0.0278443, -0.0593569, -0.0101423, -0.0165078, -0.106866, -0.0361215, -0.0232999, -0.00297905, 0.0267246, -0.0152151, -0.0176318,
               -0.0630293, -0.0189552, 0.0132562, -0.01847, -0.0197551, -0.0689311, -0.0186994, 0.0181956, 0.0267389, 0.0284209, -0.0488962, -0.0304486, -0.0327878, -0.0294359, 0.00386871, 0.0146953, -0.026174, 0.00854302, 0.00100896, -0.0329361, -0.0373382, 0.00441223, -0.00217469, -0.00574587, -0.00264361